{"learner":{"attributes":{"best_iteration":"99","best_score":"6.443401578838523","scikit_learn":"{\"_estimator_type\": \"regressor\"}"},"feature_names":[],"feature_types":[],"gradient_booster":{"model":{"gbtree_model_param":{"num_parallel_tree":"1","num_trees":"100"},"iteration_indptr":[0,1,2,3,4,5,6,7,8,9,10,11,12,13,14,15,16,17,18,19,20,21,22,23,24,25,26,27,28,29,30,31,32,33,34,35,36,37,38,39,40,41,42,43,44,45,46,47,48,49,50,51,52,53,54,55,56,57,58,59,60,61,62,63,64,65,66,67,68,69,70,71,72,73,74,75,76,77,78,79,80,81,82,83,84,85,86,87,88,89,90,91,92,93,94,95,96,97,98,99,100],"tree_info":[0,0,0,0,0,0,0,0,0,0,0,0,0,0,0,0,0,0,0,0,0,0,0,0,0,0,0,0,0,0,0,0,0,0,0,0,0,0,0,0,0,0,0,0,0,0,0,0,0,0,0,0,0,0,0,0,0,0,0,0,0,0,0,0,0,0,0,0,0,0,0,0,0,0,0,0,0,0,0,0,0,0,0,0,0,0,0,0,0,0,0,0,0,0,0,0,0,0,0,0],"trees":[{"base_weights":[-3.7908787E-1,-2.133128E0,4.3189204E-1,-1.3500344E0,-6.584902E0,4.535433E0,1.084651E-1,-5.355556E-2,-4.1123858E-1,-8.786048E-1,-2.7806625E-1,1.9196205E-1,6.8065715E-1,-3.682005E-2,9.253583E-2],"categories":[],"categories_nodes":[],"categories_segments":[],"categories_sizes":[],"default_left":[0,0,0,0,0,0,0,0,0,0,0,0,0,0,0],"id":0,"left_children":[1,3,5,7,9,11,13,-1,-1,-1,-1,-1,-1,-1,-1],"loss_changes":[1.5346759E4,1.1882387E4,9.791558E3,5.5558413E3,5.6378594E3,3.354125E3,1.0069632E4,0E0,0E0,0E0,0E0,0E0,0E0,0E0,0E0],"parents":[2147483647,0,0,1,1,2,2,3,3,4,4,5,5,6,6],"right_children":[2,4,6,8,10,12,14,-1,-1,-1,-1,-1,-1,-1,-1],"split_conditions":[4.5492496E1,4.56497E1,4.551166E1,2.8127E4,3.665524E1,2.4668E4,6.3146805E1,-5.355556E-2,-4.1123858E-1,-8.786048E-1,-2.7806625E-1,1.9196205E-1,6.8065715E-1,-3.682005E-2,9.253583E-2],"split_indices":[38,28,28,36,38,36,38,0,0,0,0,0,0,0,0],"split_type":[0,0,0,0,0,0,0,0,0,0,0,0,0,0,0],"sum_hessian":[1.0787E4,3.41E3,7.377E3,2.901E3,5.09E2,5.38E2,6.839E3,2.789E3,1.12E2,4.2E1,4.67E2,5.01E2,3.7E1,4.606E3,2.233E3],"tree_param":{"num_deleted":"0","num_feature":"44","num_nodes":"15","size_leaf_vector":"1"}},{"base_weights":[-3.6019778E-1,-1.8824593E0,4.947356E-1,-1.4500495E0,-8.90027E0,4.7563086E0,1.9709444E-1,-6.176584E-2,-4.497992E-1,-1.0033828E0,-3.9161238E-1,2.17659E-1,9.001898E-1,-1.43324165E-2,1.4673878E-1],"categories":[],"categories_nodes":[],"categories_segments":[],"categories_sizes":[],"default_left":[0,0,0,0,0,0,0,0,0,0,0,0,0,0,0],"id":1,"left_children":[1,3,5,7,9,11,13,-1,-1,-1,-1,-1,-1,-1,-1],"loss_changes":[1.404078E4,1.1761226E4,8.762574E3,5.912919E3,2.5264023E3,2.330167E3,8.554711E3,0E0,0E0,0E0,0E0,0E0,0E0,0E0,0E0],"parents":[2147483647,0,0,1,1,2,2,3,3,4,4,5,5,6,6],"right_children":[2,4,6,8,10,12,14,-1,-1,-1,-1,-1,-1,-1,-1],"split_conditions":[4.707762E1,5.0429646E1,4.6352947E1,3.1336E4,3.665524E1,4.0136E4,7.021639E1,-6.176584E-2,-4.497992E-1,-1.0033828E0,-3.9161238E-1,2.17659E-1,9.001898E-1,-1.43324165E-2,1.4673878E-1],"split_indices":[38,28,28,36,38,36,38,0,0,0,0,0,0,0,0],"split_type":[0,0,0,0,0,0,0,0,0,0,0,0,0,0,0],"sum_hessian":[1.0787E4,3.879E3,6.908E3,3.655E3,2.24E2,4.5E2,6.458E3,3.555E3,1E2,1.8E1,2.06E2,4.38E2,1.2E1,5.489E3,9.69E2],"tree_param":{"num_deleted":"0","num_feature":"44","num_nodes":"15","size_leaf_vector":"1"}},{"base_weights":[-3.422487E-1,-1.5704525E0,6.289554E-1,-1.0387151E0,-6.567444E0,4.1557784E0,2.0021088E-1,-1.5528385E-1,-1.7042464E-2,-2.6483998E-1,-6.344928E-1,1.7628564E-1,8.3420056E-1,-3.5744708E-2,8.8813916E-2],"categories":[],"categories_nodes":[],"categories_segments":[],"categories_sizes":[],"default_left":[0,0,0,0,0,0,0,0,0,0,0,0,0,0,0],"id":2,"left_children":[1,3,5,7,9,11,13,-1,-1,-1,-1,-1,-1,-1,-1],"loss_changes":[1.2869309E4,1.2651539E4,9.109606E3,6.2116255E3,3.495754E3,5.095705E3,7.750572E3,0E0,0E0,0E0,0E0,0E0,0E0,0E0,0E0],"parents":[2147483647,0,0,1,1,2,2,3,3,4,4,5,5,6,6],"right_children":[2,4,6,8,10,12,14,-1,-1,-1,-1,-1,-1,-1,-1],"split_conditions":[4.987442E1,5.0698765E1,5.0429646E1,3.499599E1,2.1485E4,6.039468E1,6.43125E1,-1.5528385E-1,-1.7042464E-2,-2.6483998E-1,-6.344928E-1,1.7628564E-1,8.3420056E-1,-3.5744708E-2,8.8813916E-2],"split_indices":[38,28,28,38,36,38,38,0,0,0,0,0,0,0,0],"split_type":[0,0,0,0,0,0,0,0,0,0,0,0,0,0,0],"sum_hessian":[1.0787E4,4.763E3,6.024E3,4.306E3,4.57E2,6.52E2,5.372E3,1.086E3,3.22E3,3.8E2,7.7E1,6.22E2,3E1,3.399E3,1.973E3],"tree_param":{"num_deleted":"0","num_feature":"44","num_nodes":"15","size_leaf_vector":"1"}},{"base_weights":[-3.2513702E-1,-1.171425E0,9.745036E-1,-7.8878033E-1,-5.49577E0,4.9163775E0,3.6590558E-1,-1.207176E-1,-2.1273852E-3,-2.3450887E-1,-6.943777E-1,1.8271737E-1,5.840887E-1,-1.8782508E-2,1.2393626E-1],"categories":[],"categories_nodes":[],"categories_segments":[],"categories_sizes":[],"default_left":[0,0,0,0,0,0,0,0,0,0,0,0,0,0,0],"id":3,"left_children":[1,3,5,7,9,11,13,-1,-1,-1,-1,-1,-1,-1,-1],"loss_changes":[1.1866541E4,1.0807393E4,1.0206018E4,7.283076E3,3.5246152E3,4.81551E3,5.777625E3,0E0,0E0,0E0,0E0,0E0,0E0,0E0,0E0],"parents":[2147483647,0,0,1,1,2,2,3,3,4,4,5,5,6,6],"right_children":[2,4,6,8,10,12,14,-1,-1,-1,-1,-1,-1,-1,-1],"split_conditions":[5.5441193E1,5.5432884E1,5.5661068E1,3.9396942E1,6.430789E1,6.1388153E1,7.021639E1,-1.207176E-1,-2.1273852E-3,-2.3450887E-1,-6.943777E-1,1.8271737E-1,5.840887E-1,-1.8782508E-2,1.2393626E-1],"split_indices":[38,28,28,38,28,38,38,0,0,0,0,0,0,0,0],"split_type":[0,0,0,0,0,0,0,0,0,0,0,0,0,0,0],"sum_hessian":[1.0787E4,6.533E3,4.254E3,6.003E3,5.3E2,5.68E2,3.686E3,1.888E3,4.115E3,4.85E2,4.5E1,4.8E2,8.8E1,2.729E3,9.57E2],"tree_param":{"num_deleted":"0","num_feature":"44","num_nodes":"15","size_leaf_vector":"1"}},{"base_weights":[-3.088968E-1,-1.5772096E0,4.9144277E-1,-1.1359152E0,-7.440118E0,3.465952E0,9.89983E-2,-4.726336E-2,-4.0616655E-1,-9.1623783E-1,-3.329095E-1,1.3839339E-1,5.208613E-1,-4.1171808E-2,7.341495E-2],"categories":[],"categories_nodes":[],"categories_segments":[],"categories_sizes":[],"default_left":[0,0,0,0,0,0,0,0,0,0,0,0,0,0,0],"id":4,"left_children":[1,3,5,7,9,11,13,-1,-1,-1,-1,-1,-1,-1,-1],"loss_changes":[1.0951468E4,1.0790807E4,7.7215425E3,5.165006E3,2.3632031E3,3.712503E3,7.383971E3,0E0,0E0,0E0,0E0,0E0,0E0,0E0,0E0],"parents":[2147483647,0,0,1,1,2,2,3,3,4,4,5,5,6,6],"right_children":[2,4,6,8,10,12,14,-1,-1,-1,-1,-1,-1,-1,-1],"split_conditions":[4.8026184E1,5.0429646E1,4.9242355E1,3.1336E4,3.665524E1,5.5441193E1,6.2648705E1,-4.726336E-2,-4.0616655E-1,-9.1623783E-1,-3.329095E-1,1.3839339E-1,5.208613E-1,-4.1171808E-2,7.341495E-2],"split_indices":[38,28,28,36,38,38,38,0,0,0,0,0,0,0,0],"split_type":[0,0,0,0,0,0,0,0,0,0,0,0,0,0,0],"sum_hessian":[1.0787E4,4.173E3,6.614E3,3.882E3,2.91E2,7.7E2,5.844E3,3.78E3,1.02E2,1.8E1,2.73E2,7.01E2,6.9E1,3.492E3,2.352E3],"tree_param":{"num_deleted":"0","num_feature":"44","num_nodes":"15","size_leaf_vector":"1"}},{"base_weights":[-2.935457E-1,-1.7301515E0,3.596198E-1,-8.901398E-1,-5.1418357E0,4.849619E0,1.1646941E-1,-1.3483135E-1,4.328422E-3,-6.5404147E-1,-2.010115E-1,7.0914894E-1,2.0201924E-1,-3.0653307E-2,6.770598E-2],"categories":[],"categories_nodes":[],"categories_segments":[],"categories_sizes":[],"default_left":[0,0,0,0,0,0,0,0,0,0,0,0,0,0,0],"id":5,"left_children":[1,3,5,7,9,11,13,-1,-1,-1,-1,-1,-1,-1,-1],"loss_changes":[1.0123449E4,9.659085E3,8.096907E3,4.776494E3,5.877756E3,2.8203408E3,6.354606E3,0E0,0E0,0E0,0E0,0E0,0E0,0E0,0E0],"parents":[2147483647,0,0,1,1,2,2,3,3,4,4,5,5,6,6],"right_children":[2,4,6,8,10,12,14,-1,-1,-1,-1,-1,-1,-1,-1],"split_conditions":[4.539579E1,4.451651E1,4.423646E1,3.394342E1,3.8378452E1,-7.413948E0,6.1563698E1,-1.3483135E-1,4.328422E-3,-6.5404147E-1,-2.010115E-1,7.0914894E-1,2.0201924E-1,-3.0653307E-2,6.770598E-2],"split_indices":[38,28,28,38,38,30,38,0,0,0,0,0,0,0,0],"split_type":[0,0,0,0,0,0,0,0,0,0,0,0,0,0,0],"sum_hessian":[1.0787E4,3.371E3,7.416E3,2.706E3,6.65E2,3.8E2,7.036E3,9.49E2,1.757E3,8.1E1,5.84E2,2.9E1,3.51E2,4.427E3,2.609E3],"tree_param":{"num_deleted":"0","num_feature":"44","num_nodes":"15","size_leaf_vector":"1"}},{"base_weights":[-2.788719E-1,-1.2572091E0,6.110315E-1,-8.541562E-1,-6.4049196E0,4.1053305E0,1.7872584E-1,-3.47231E-2,-3.6830562E-1,-2.0805322E-1,-4.5739365E-1,1.7004208E-1,7.274667E-1,-3.2075085E-2,7.268789E-2],"categories":[],"categories_nodes":[],"categories_segments":[],"categories_sizes":[],"default_left":[0,0,0,0,0,0,0,0,0,0,0,0,0,0,0],"id":6,"left_children":[1,3,5,7,9,11,13,-1,-1,-1,-1,-1,-1,-1,-1],"loss_changes":[9.393077E3,1.0656925E4,8.534186E3,4.952193E3,2.2576738E3,4.526998E3,5.2603413E3,0E0,0E0,0E0,0E0,0E0,0E0,0E0,0E0],"parents":[2147483647,0,0,1,1,2,2,3,3,4,4,5,5,6,6],"right_children":[2,4,6,8,10,12,14,-1,-1,-1,-1,-1,-1,-1,-1],"split_conditions":[5.1064125E1,5.2385803E1,5.1476135E1,3.1336E4,6.2234845E0,6.0731632E1,6.43125E1,-3.47231E-2,-3.6830562E-1,-2.0805322E-1,-4.5739365E-1,1.7004208E-1,7.274667E-1,-3.2075085E-2,7.268789E-2],"split_indices":[38,28,28,36,39,38,38,0,0,0,0,0,0,0,0],"split_type":[0,0,0,0,0,0,0,0,0,0,0,0,0,0,0],"sum_hessian":[1.0787E4,5.138E3,5.649E3,4.766E3,3.72E2,6.21E2,5.028E3,4.653E3,1.13E2,2.06E2,1.66E2,5.83E2,3.8E1,3.06E3,1.968E3],"tree_param":{"num_deleted":"0","num_feature":"44","num_nodes":"15","size_leaf_vector":"1"}},{"base_weights":[-2.6494035E-1,-1.6178515E0,3.2891074E-1,-8.230592E-1,-5.1237803E0,4.0146756E0,6.612138E-2,-1.1567613E-1,1.1394261E-2,-7.065706E-1,-2.110136E-1,6.4709586E-1,1.6978438E-1,-1.5042081E-2,1.1738274E-1],"categories":[],"categories_nodes":[],"categories_segments":[],"categories_sizes":[],"default_left":[0,0,0,0,0,0,0,0,0,0,0,0,0,0,0],"id":7,"left_children":[1,3,5,7,9,11,13,-1,-1,-1,-1,-1,-1,-1,-1],"loss_changes":[8.667911E3,9.1661045E3,7.262146E3,4.204729E3,4.888551E3,2.713454E3,5.861374E3,0E0,0E0,0E0,0E0,0E0,0E0,0E0,0E0],"parents":[2147483647,0,0,1,1,2,2,3,3,4,4,5,5,6,6],"right_children":[2,4,6,8,10,12,14,-1,-1,-1,-1,-1,-1,-1,-1],"split_conditions":[4.5112797E1,4.451651E1,4.4939194E1,3.522965E1,3.665524E1,-7.413948E0,7.021639E1,-1.1567613E-1,1.1394261E-2,-7.065706E-1,-2.110136E-1,6.4709586E-1,1.6978438E-1,-1.5042081E-2,1.1738274E-1],"split_indices":[38,28,28,38,38,30,38,0,0,0,0,0,0,0,0],"split_type":[0,0,0,0,0,0,0,0,0,0,0,0,0,0,0],"sum_hessian":[1.0787E4,3.29E3,7.497E3,2.683E3,6.07E2,4.98E2,6.999E3,1.109E3,1.574E3,5.4E1,5.53E2,3.1E1,4.67E2,6.03E3,9.69E2],"tree_param":{"num_deleted":"0","num_feature":"44","num_nodes":"15","size_leaf_vector":"1"}},{"base_weights":[-2.5170287E-1,-8.6348253E-1,9.772153E-1,-6.910922E-1,-8.909877E0,6.253505E0,4.4944844E-1,-2.8586283E-2,-3.1090853E-1,-3.0453965E-1,-6.601252E-1,2.4935563E-1,6.926784E-1,1.1900834E-2,2.6529822E-1],"categories":[],"categories_nodes":[],"categories_segments":[],"categories_sizes":[],"default_left":[0,0,0,0,0,0,0,0,0,0,0,0,0,0,0],"id":8,"left_children":[1,3,5,7,9,11,13,-1,-1,-1,-1,-1,-1,-1,-1],"loss_changes":[8.1115547E3,9.985273E3,9.982947E3,4.649647E3,1.7468779E3,3.0685508E3,3.347203E3,0E0,0E0,0E0,0E0,0E0,0E0,0E0,0E0],"parents":[2147483647,0,0,1,1,2,2,3,3,4,4,5,5,6,6],"right_children":[2,4,6,8,10,12,14,-1,-1,-1,-1,-1,-1,-1,-1],"split_conditions":[5.7757275E1,6.2108257E1,5.6336044E1,3.1336E4,7.4293237E0,2.5342E4,2.8127E4,-2.8586283E-2,-3.1090853E-1,-3.0453965E-1,-6.601252E-1,2.4935563E-1,6.926784E-1,1.1900834E-2,2.6529822E-1],"split_indices":[38,28,28,36,39,36,36,0,0,0,0,0,0,0,0],"split_type":[0,0,0,0,0,0,0,0,0,0,0,0,0,0,0],"sum_hessian":[1.0787E4,7.202E3,3.585E3,7.052E3,1.5E2,3.25E2,3.26E3,6.904E3,1.48E2,9.2E1,5.8E1,2.8E2,4.5E1,3.125E3,1.35E2],"tree_param":{"num_deleted":"0","num_feature":"44","num_nodes":"15","size_leaf_vector":"1"}},{"base_weights":[-2.3912561E-1,-1.1161711E0,5.5864006E-1,-7.2362095E-1,-5.7400184E0,3.8696053E0,1.4902008E-1,-9.454947E-2,2.1116526E-3,-1.861044E-1,-4.091668E-1,1.6149132E-1,6.675331E-1,-1.5055907E-2,1.0249583E-1],"categories":[],"categories_nodes":[],"categories_segments":[],"categories_sizes":[],"default_left":[0,0,0,0,0,0,0,0,0,0,0,0,0,0,0],"id":9,"left_children":[1,3,5,7,9,11,13,-1,-1,-1,-1,-1,-1,-1,-1],"loss_changes":[7.5487373E3,9.3236045E3,7.662165E3,4.2360117E3,1.9515801E3,3.729794E3,4.303762E3,0E0,0E0,0E0,0E0,0E0,0E0,0E0,0E0],"parents":[2147483647,0,0,1,1,2,2,3,3,4,4,5,5,6,6],"right_children":[2,4,6,8,10,12,14,-1,-1,-1,-1,-1,-1,-1,-1],"split_conditions":[5.1064125E1,5.2120228E1,5.1476135E1,3.9396942E1,6.2234845E0,6.0731632E1,7.021639E1,-9.454947E-2,2.1116526E-3,-1.861044E-1,-4.091668E-1,1.6149132E-1,6.675331E-1,-1.5055907E-2,1.0249583E-1],"split_indices":[38,28,28,38,39,38,38,0,0,0,0,0,0,0,0],"split_type":[0,0,0,0,0,0,0,0,0,0,0,0,0,0,0],"sum_hessian":[1.0787E4,5.138E3,5.649E3,4.737E3,4.01E2,6.21E2,5.028E3,1.876E3,2.861E3,2.21E2,1.8E2,5.83E2,3.8E1,4.066E3,9.62E2],"tree_param":{"num_deleted":"0","num_feature":"44","num_nodes":"15","size_leaf_vector":"1"}},{"base_weights":[-2.2714812E-1,-1.29862E0,3.7460873E-1,-8.2019025E-1,-5.6521883E0,3.903818E0,1.1404167E-1,-3.6385775E-2,-6.568789E-1,-5.753655E-1,-2.3191963E-1,1.1790448E-1,3.2348397E-1,-1.1755629E-2,1.0407132E-1],"categories":[],"categories_nodes":[],"categories_segments":[],"categories_sizes":[],"default_left":[0,0,0,0,0,0,0,0,0,0,0,0,0,0,0],"id":10,"left_children":[1,3,5,7,9,11,13,-1,-1,-1,-1,-1,-1,-1,-1],"loss_changes":[6.9562173E3,8.076926E3,6.3530415E3,3.9736877E3,2.2260098E3,1.8686528E3,4.4208237E3,0E0,0E0,0E0,0E0,0E0,0E0,0E0,0E0],"parents":[2147483647,0,0,1,1,2,2,3,3,4,4,5,5,6,6],"right_children":[2,4,6,8,10,12,14,-1,-1,-1,-1,-1,-1,-1,-1],"split_conditions":[4.707762E1,4.8270428E1,4.649372E1,4.5214E4,4.058898E1,6.712326E0,7.021639E1,-3.6385775E-2,-6.568789E-1,-5.753655E-1,-2.3191963E-1,1.1790448E-1,3.2348397E-1,-1.1755629E-2,1.0407132E-1],"split_indices":[38,28,28,36,38,39,38,0,0,0,0,0,0,0,0],"split_type":[0,0,0,0,0,0,0,0,0,0,0,0,0,0,0],"sum_hessian":[1.0787E4,3.879E3,6.908E3,3.496E3,3.83E2,4.74E2,6.434E3,3.471E3,2.5E1,5.5E1,3.28E2,2.97E2,1.77E2,5.465E3,9.69E2],"tree_param":{"num_deleted":"0","num_feature":"44","num_nodes":"15","size_leaf_vector":"1"}},{"base_weights":[-2.1588032E-1,-8.608405E-1,7.275391E-1,-5.3592235E-1,-4.9089046E0,4.1256943E0,1.4615299E-1,-8.983967E-2,2.6516109E-3,-2.0925128E-1,-6.243504E-1,1.5888418E-1,4.979568E-1,-4.4459015E-2,5.5158116E-2],"categories":[],"categories_nodes":[],"categories_segments":[],"categories_sizes":[],"default_left":[0,0,0,0,0,0,0,0,0,0,0,0,0,0,0],"id":11,"left_children":[1,3,5,7,9,11,13,-1,-1,-1,-1,-1,-1,-1,-1],"loss_changes":[6.5647783E3,8.425743E3,8.654678E3,4.405916E3,2.5589014E3,3.5076592E3,3.708643E3,0E0,0E0,0E0,0E0,0E0,0E0,0E0,0E0],"parents":[2147483647,0,0,1,1,2,2,3,3,4,4,5,5,6,6],"right_children":[2,4,6,8,10,12,14,-1,-1,-1,-1,-1,-1,-1,-1],"split_conditions":[5.5057007E1,5.5432884E1,5.5661068E1,3.9396942E1,6.4531204E1,6.1388153E1,6.43125E1,-8.983967E-2,2.6516109E-3,-2.0925128E-1,-6.243504E-1,1.5888418E-1,4.979568E-1,-4.4459015E-2,5.5158116E-2],"split_indices":[38,28,28,38,28,38,38,0,0,0,0,0,0,0,0],"split_type":[0,0,0,0,0,0,0,0,0,0,0,0,0,0,0],"sum_hessian":[1.0787E4,6.407E3,4.38E3,5.932E3,4.75E2,6.39E2,3.741E3,1.888E3,4.044E3,4.35E2,4E1,5.51E2,8.8E1,1.797E3,1.944E3],"tree_param":{"num_deleted":"0","num_feature":"44","num_nodes":"15","size_leaf_vector":"1"}},{"base_weights":[-2.0510979E-1,-7.5872844E-1,7.976022E-1,-4.8385784E-1,-5.1427402E0,3.939489E0,1.1012361E-1,-6.986805E-2,1.0345788E-2,-1.992233E-1,-5.3558624E-1,1.5929005E-1,5.9666735E-1,-6.0344767E-2,4.755478E-2],"categories":[],"categories_nodes":[],"categories_segments":[],"categories_sizes":[],"default_left":[0,0,0,0,0,0,0,0,0,0,0,0,0,0,0],"id":12,"left_children":[1,3,5,7,9,11,13,-1,-1,-1,-1,-1,-1,-1,-1],"loss_changes":[5.98924E3,8.373717E3,8.289568E3,4.1284478E3,2.6019893E3,4.113123E3,3.4900122E3,0E0,0E0,0E0,0E0,0E0,0E0,0E0,0E0],"parents":[2147483647,0,0,1,1,2,2,3,3,4,4,5,5,6,6],"right_children":[2,4,6,8,10,12,14,-1,-1,-1,-1,-1,-1,-1,-1],"split_conditions":[5.690281E1,5.7509148E1,5.8119984E1,4.3409943E1,6.3900253E1,2.5342E4,6.43125E1,-6.986805E-2,1.0345788E-2,-1.992233E-1,-5.3558624E-1,1.5929005E-1,5.9666735E-1,-6.0344767E-2,4.755478E-2],"split_indices":[38,28,28,38,28,36,38,0,0,0,0,0,0,0,0],"split_type":[0,0,0,0,0,0,0,0,0,0,0,0,0,0,0],"sum_hessian":[1.0787E4,6.95E3,3.837E3,6.541E3,4.09E2,6.88E2,3.149E3,2.816E3,3.725E3,3.4E2,6.9E1,6.3E2,5.8E1,1.227E3,1.922E3],"tree_param":{"num_deleted":"0","num_feature":"44","num_nodes":"15","size_leaf_vector":"1"}},{"base_weights":[-1.9485904E-1,-9.826705E-1,4.5847782E-1,-5.403222E-1,-4.644659E0,3.128583E0,5.5736944E-2,-1.051746E-1,-1.0980531E-3,-1.6610347E-1,-3.8153288E-1,1.292345E-1,5.6448925E-1,-5.6387223E-2,3.507575E-2],"categories":[],"categories_nodes":[],"categories_segments":[],"categories_sizes":[],"default_left":[0,0,0,0,0,0,0,0,0,0,0,0,0,0,0],"id":13,"left_children":[1,3,5,7,9,11,13,-1,-1,-1,-1,-1,-1,-1,-1],"loss_changes":[5.553102E3,7.9202964E3,6.342301E3,3.5368545E3,2.0559053E3,3.4020273E3,3.9184197E3,0E0,0E0,0E0,0E0,0E0,0E0,0E0,0E0],"parents":[2147483647,0,0,1,1,2,2,3,3,4,4,5,5,6,6],"right_children":[2,4,6,8,10,12,14,-1,-1,-1,-1,-1,-1,-1,-1],"split_conditions":[5.0296135E1,5.0561028E1,5.1476135E1,3.499599E1,7.4726677E0,2.5342E4,5.8596416E1,-1.051746E-1,-1.0980531E-3,-1.6610347E-1,-3.8153288E-1,1.292345E-1,5.6448925E-1,-5.6387223E-2,3.507575E-2],"split_indices":[38,28,28,38,39,36,38,0,0,0,0,0,0,0,0],"split_type":[0,0,0,0,0,0,0,0,0,0,0,0,0,0,0],"sum_hessian":[1.0787E4,4.89E3,5.897E3,4.364E3,5.26E2,7.72E2,5.125E3,1.086E3,3.278E3,3.66E2,1.6E2,7.25E2,4.7E1,1.809E3,3.316E3],"tree_param":{"num_deleted":"0","num_feature":"44","num_nodes":"15","size_leaf_vector":"1"}},{"base_weights":[-1.8511438E-1,-1.1944607E0,2.8155214E-1,-3.4301648E-1,-3.932551E0,4.485414E0,8.5956015E-2,-9.539783E-2,2.7504677E-2,-4.9854764E-1,-1.4890206E-1,1.9450183E-1,8.780509E-1,-9.550531E-3,9.112384E-2],"categories":[],"categories_nodes":[],"categories_segments":[],"categories_sizes":[],"default_left":[0,0,0,0,0,0,0,0,0,0,0,0,0,0,0],"id":14,"left_children":[1,3,5,7,9,11,13,-1,-1,-1,-1,-1,-1,-1,-1],"loss_changes":[5.081788E3,7.950822E3,6.066242E3,3.639168E3,4.6331504E3,2.4851401E3,3.391585E3,0E0,0E0,0E0,0E0,0E0,0E0,0E0,0E0],"parents":[2147483647,0,0,1,1,2,2,3,3,4,4,5,5,6,6],"right_children":[2,4,6,8,10,12,14,-1,-1,-1,-1,-1,-1,-1,-1],"split_conditions":[4.5492496E1,4.3702362E1,4.387537E1,3.394342E1,3.8789814E1,3.0538E3,7.021639E1,-9.539783E-2,2.7504677E-2,-4.9854764E-1,-1.4890206E-1,1.9450183E-1,8.780509E-1,-9.550531E-3,9.112384E-2],"split_indices":[38,28,28,38,38,1,38,0,0,0,0,0,0,0,0],"split_type":[0,0,0,0,0,0,0,0,0,0,0,0,0,0,0],"sum_hessian":[1.0787E4,3.41E3,7.377E3,2.602E3,8.08E2,3.27E2,7.05E3,9.45E2,1.657E3,1.09E2,6.99E2,3.14E2,1.3E1,6.081E3,9.69E2],"tree_param":{"num_deleted":"0","num_feature":"44","num_nodes":"15","size_leaf_vector":"1"}},{"base_weights":[-1.7581798E-1,-8.4788585E-1,4.850399E-1,-4.9166864E-1,-4.7154255E0,3.3532765E0,8.3517365E-2,-1.857208E-2,-2.7228794E-1,-1.5350245E-1,-3.4797475E-1,1.383409E-1,5.352669E-1,-5.402379E-2,3.2208674E-2],"categories":[],"categories_nodes":[],"categories_segments":[],"categories_sizes":[],"default_left":[0,0,0,0,0,0,0,0,0,0,0,0,0,0,0],"id":15,"left_children":[1,3,5,7,9,11,13,-1,-1,-1,-1,-1,-1,-1,-1],"loss_changes":[4.7918086E3,7.366913E3,6.26476E3,2.9158972E3,1.6438799E3,2.850581E3,3.115555E3,0E0,0E0,0E0,0E0,0E0,0E0,0E0,0E0],"parents":[2147483647,0,0,1,1,2,2,3,3,4,4,5,5,6,6],"right_children":[2,4,6,8,10,12,14,-1,-1,-1,-1,-1,-1,-1,-1],"split_conditions":[5.1683292E1,5.2385803E1,5.2385803E1,3.1336E4,6.4880776E0,6.0027813E1,5.896736E1,-1.857208E-2,-2.7228794E-1,-1.5350245E-1,-3.4797475E-1,1.383409E-1,5.352669E-1,-5.402379E-2,3.2208674E-2],"split_indices":[38,28,28,36,39,38,38,0,0,0,0,0,0,0,0],"split_type":[0,0,0,0,0,0,0,0,0,0,0,0,0,0,0],"sum_hessian":[1.0787E4,5.348E3,5.439E3,4.898E3,4.5E2,6.67E2,4.772E3,4.783E3,1.15E2,2.61E2,1.89E2,6.19E2,4.8E1,1.551E3,3.221E3],"tree_param":{"num_deleted":"0","num_feature":"44","num_nodes":"15","size_leaf_vector":"1"}},{"base_weights":[-1.6704011E-1,-9.471067E-1,3.575446E-1,-4.3543482E-1,-4.2354302E0,3.095785E0,6.949442E-2,-1.7865773E-2,-5.6042314E-1,-5.008992E-1,-1.807641E-1,1.3262616E-1,5.4097503E-1,-6.2321015E-3,1.425203E-1],"categories":[],"categories_nodes":[],"categories_segments":[],"categories_sizes":[],"default_left":[0,0,0,0,0,0,0,0,0,0,0,0,0,0,0],"id":16,"left_children":[1,3,5,7,9,11,13,-1,-1,-1,-1,-1,-1,-1,-1],"loss_changes":[4.4149067E3,7.2970254E3,5.0880146E3,3.1561365E3,2.0580293E3,2.0734097E3,3.1521526E3,0E0,0E0,0E0,0E0,0E0,0E0,0E0,0E0],"parents":[2147483647,0,0,1,1,2,2,3,3,4,4,5,5,6,6],"right_children":[2,4,6,8,10,12,14,-1,-1,-1,-1,-1,-1,-1,-1],"split_conditions":[4.853739E1,4.8270428E1,4.899949E1,4.5214E4,4.058898E1,2.7069E4,7.565349E1,-1.7865773E-2,-5.6042314E-1,-5.008992E-1,-1.807641E-1,1.3262616E-1,5.4097503E-1,-6.2321015E-3,1.425203E-1],"split_indices":[38,28,28,36,38,36,38,0,0,0,0,0,0,0,0],"split_type":[0,0,0,0,0,0,0,0,0,0,0,0,0,0,0],"sum_hessian":[1.0787E4,4.337E3,6.45E3,3.754E3,5.83E2,6.13E2,5.837E3,3.728E3,2.6E1,5.5E1,5.28E2,5.81E2,3.2E1,5.457E3,3.8E2],"tree_param":{"num_deleted":"0","num_feature":"44","num_nodes":"15","size_leaf_vector":"1"}},{"base_weights":[-1.5872982E-1,-1.295544E0,1.8219659E-1,-3.79755E-1,-4.7964587E0,4.8345523E0,1.134923E-2,-8.254846E-2,3.7942316E-2,-1.4816792E-1,-4.3390012E-1,2.0569909E-1,9.476053E-1,-2.543304E-2,3.794944E-2],"categories":[],"categories_nodes":[],"categories_segments":[],"categories_sizes":[],"default_left":[0,0,0,0,0,0,0,0,0,0,0,0,0,0,0],"id":17,"left_children":[1,3,5,7,9,11,13,-1,-1,-1,-1,-1,-1,-1,-1],"loss_changes":[4.181341E3,7.9781587E3,6.597139E3,2.8584321E3,3.6457578E3,2.9128042E3,3.113348E3,0E0,0E0,0E0,0E0,0E0,0E0,0E0,0E0],"parents":[2147483647,0,0,1,1,2,2,3,3,4,4,5,5,6,6],"right_children":[2,4,6,8,10,12,14,-1,-1,-1,-1,-1,-1,-1,-1],"split_conditions":[4.201069E1,4.130125E1,4.0764523E1,3.394342E1,7.0288305E0,3.0217E3,5.896736E1,-8.254846E-2,3.7942316E-2,-1.4816792E-1,-4.3390012E-1,2.0569909E-1,9.476053E-1,-2.543304E-2,3.794944E-2],"split_indices":[38,28,28,38,39,33,38,0,0,0,0,0,0,0,0],"split_type":[0,0,0,0,0,0,0,0,0,0,0,0,0,0,0],"sum_hessian":[1.0787E4,2.488E3,8.299E3,1.973E3,5.15E2,2.93E2,8.006E3,9.32E2,1.041E3,3.51E2,1.64E2,2.8E2,1.3E1,4.722E3,3.284E3],"tree_param":{"num_deleted":"0","num_feature":"44","num_nodes":"15","size_leaf_vector":"1"}},{"base_weights":[-1.5074335E-1,-1.4492226E0,1.2646556E-1,-4.8830813E-1,-5.8041315E0,4.1783733E0,-5.6428075E-2,1.1183973E-2,-1.3197836E-1,-1.6704835E-1,-4.6759278E-1,1.8239643E-1,8.492057E-1,-3.7430607E-2,2.6229689E-2],"categories":[],"categories_nodes":[],"categories_segments":[],"categories_sizes":[],"default_left":[0,0,0,0,0,0,0,0,0,0,0,0,0,0,0],"id":18,"left_children":[1,3,5,7,9,11,13,-1,-1,-1,-1,-1,-1,-1,-1],"loss_changes":[3.883324E3,7.939717E3,6.5890713E3,2.3838684E3,2.9661045E3,2.546454E3,3.422089E3,0E0,0E0,0E0,0E0,0E0,0E0,0E0,0E0],"parents":[2147483647,0,0,1,1,2,2,3,3,4,4,5,5,6,6],"right_children":[2,4,6,8,10,12,14,-1,-1,-1,-1,-1,-1,-1,-1],"split_conditions":[3.9396942E1,3.9609875E1,3.9609875E1,1.2109E4,6.612188E0,3.0448E3,5.4258545E1,1.1183973E-2,-1.3197836E-1,-1.6704835E-1,-4.6759278E-1,1.8239643E-1,8.492057E-1,-3.7430607E-2,2.6229689E-2],"split_indices":[38,28,28,36,39,1,38,0,0,0,0,0,0,0,0],"split_type":[0,0,0,0,0,0,0,0,0,0,0,0,0,0,0],"sum_hessian":[1.0787E4,1.897E3,8.89E3,1.555E3,3.42E2,3.83E2,8.507E3,1.169E3,3.86E2,2.03E2,1.39E2,3.69E2,1.4E1,3.882E3,4.625E3],"tree_param":{"num_deleted":"0","num_feature":"44","num_nodes":"15","size_leaf_vector":"1"}},{"base_weights":[-1.4318162E-1,-1.0234679E0,2.3498604E-1,-2.881838E-1,-3.7226262E0,3.0427454E0,-1.7644871E-2,-8.118615E-2,2.498321E-2,-5.2645135E-1,-1.5131892E-1,7.586408E-1,1.3694894E-1,-5.56912E-2,1.9493533E-2],"categories":[],"categories_nodes":[],"categories_segments":[],"categories_sizes":[],"default_left":[0,0,0,0,0,0,0,0,0,0,0,0,0,0,0],"id":19,"left_children":[1,3,5,7,9,11,13,-1,-1,-1,-1,-1,-1,-1,-1],"loss_changes":[3.5915208E3,6.4331567E3,5.3533433E3,2.682874E3,3.25696E3,2.254016E3,3.0939011E3,0E0,0E0,0E0,0E0,0E0,0E0,0E0,0E0],"parents":[2147483647,0,0,1,1,2,2,3,3,4,4,5,5,6,6],"right_children":[2,4,6,8,10,12,14,-1,-1,-1,-1,-1,-1,-1,-1],"split_conditions":[4.492684E1,4.3702362E1,4.551166E1,3.394342E1,3.665524E1,-1.1530616E1,5.276558E1,-8.118615E-2,2.498321E-2,-5.2645135E-1,-1.5131892E-1,7.586408E-1,1.3694894E-1,-5.56912E-2,1.9493533E-2],"split_indices":[38,28,28,38,38,30,38,0,0,0,0,0,0,0,0],"split_type":[0,0,0,0,0,0,0,0,0,0,0,0,0,0,0],"sum_hessian":[1.0787E4,3.241E3,7.546E3,2.548E3,6.93E2,6.22E2,6.924E3,9.45E2,1.603E3,6.3E1,6.3E2,1.4E1,6.08E2,1.876E3,5.048E3],"tree_param":{"num_deleted":"0","num_feature":"44","num_nodes":"15","size_leaf_vector":"1"}},{"base_weights":[-1.3601093E-1,-1.4401331E0,9.861473E-2,-4.6619885E-2,-4.872478E0,4.3078947E0,-5.3533353E-2,-8.735552E-2,5.7275932E-2,-1.5117168E-1,-4.7534677E-1,8.8587636E-1,1.908294E-1,-1.2852353E-2,7.95586E-2],"categories":[],"categories_nodes":[],"categories_segments":[],"categories_sizes":[],"default_left":[0,0,0,0,0,0,0,0,0,0,0,0,0,0,0],"id":20,"left_children":[1,3,5,7,9,11,13,-1,-1,-1,-1,-1,-1,-1,-1],"loss_changes":[3.3010598E3,7.8678384E3,5.8563584E3,2.3758762E3,4.0416816E3,2.0340298E3,2.9546487E3,0E0,0E0,0E0,0E0,0E0,0E0,0E0,0E0],"parents":[2147483647,0,0,1,1,2,2,3,3,4,4,5,5,6,6],"right_children":[2,4,6,8,10,12,14,-1,-1,-1,-1,-1,-1,-1,-1],"split_conditions":[3.8220413E1,3.66595E1,3.8004124E1,2.9635422E1,7.7863793E0,-5.565093E0,7.021639E1,-8.735552E-2,5.7275932E-2,-1.5117168E-1,-4.7534677E-1,8.8587636E-1,1.908294E-1,-1.2852353E-2,7.95586E-2],"split_indices":[38,28,28,38,39,32,38,0,0,0,0,0,0,0,0],"split_type":[0,0,0,0,0,0,0,0,0,0,0,0,0,0,0],"sum_hessian":[1.0787E4,1.644E3,9.143E3,1.17E3,4.74E2,3.18E2,8.825E3,4.82E2,6.88E2,3.4E2,1.34E2,1E1,3.08E2,7.854E3,9.71E2],"tree_param":{"num_deleted":"0","num_feature":"44","num_nodes":"15","size_leaf_vector":"1"}},{"base_weights":[-1.2916526E-1,-1.0326897E0,1.9165774E-1,-3.4198472E-1,-4.089165E0,3.9050555E0,1.5804145E-2,-6.6565625E-2,2.8194143E-2,-1.2480741E-1,-3.7708354E-1,1.5430765E-1,5.5947274E-1,1.9595291E-2,-5.5744357E-2],"categories":[],"categories_nodes":[],"categories_segments":[],"categories_sizes":[],"default_left":[0,0,0,0,0,0,0,0,0,0,0,0,0,0,0],"id":21,"left_children":[1,3,5,7,9,11,13,-1,-1,-1,-1,-1,-1,-1,-1],"loss_changes":[3.1273308E3,5.966745E3,5.199239E3,2.0682837E3,2.846623E3,2.1129448E3,3.2336497E3,0E0,0E0,0E0,0E0,0E0,0E0,0E0,0E0],"parents":[2147483647,0,0,1,1,2,2,3,3,4,4,5,5,6,6],"right_children":[2,4,6,8,10,12,14,-1,-1,-1,-1,-1,-1,-1,-1],"split_conditions":[4.3409943E1,4.304481E1,4.236779E1,3.522965E1,7.1364365E0,2.9206E3,6.474197E1,-6.6565625E-2,2.8194143E-2,-1.2480741E-1,-3.7708354E-1,1.5430765E-1,5.5947274E-1,1.9595291E-2,-5.5744357E-2],"split_indices":[38,28,28,38,39,33,28,0,0,0,0,0,0,0,0],"split_type":[0,0,0,0,0,0,0,0,0,0,0,0,0,0,0],"sum_hessian":[1.0787E4,2.826E3,7.961E3,2.306E3,5.2E2,3.59E2,7.602E3,1.102E3,1.204E3,3.57E2,1.63E2,3.24E2,3.5E1,5.705E3,1.897E3],"tree_param":{"num_deleted":"0","num_feature":"44","num_nodes":"15","size_leaf_vector":"1"}},{"base_weights":[-1.22694254E-1,-4.444432E-1,7.839616E-1,-2.3706737E-1,-5.722438E0,4.25232E0,-1.7269497E-1,-7.7909525E-3,-2.0858131E-1,-2.4604468E-1,-6.3995105E-1,1.7181507E-1,6.139143E-1,-7.2121084E-2,4.0125996E-2],"categories":[],"categories_nodes":[],"categories_segments":[],"categories_sizes":[],"default_left":[0,0,0,0,0,0,0,0,0,0,0,0,0,0,0],"id":22,"left_children":[1,3,5,7,9,11,13,-1,-1,-1,-1,-1,-1,-1,-1],"loss_changes":[3.1473755E3,8.714372E3,9.377481E3,2.44903E3,1.6443467E3,3.9594531E3,2.7451338E3,0E0,0E0,0E0,0E0,0E0,0E0,0E0,0E0],"parents":[2147483647,0,0,1,1,2,2,3,3,4,4,5,5,6,6],"right_children":[2,4,6,8,10,12,14,-1,-1,-1,-1,-1,-1,-1,-1],"split_conditions":[6.0731632E1,6.2108257E1,6.1915565E1,3.1336E4,7.089079E1,6.795713E1,6.795713E1,-7.7909525E-3,-2.0858131E-1,-2.4604468E-1,-6.3995105E-1,1.7181507E-1,6.139143E-1,-7.2121084E-2,4.0125996E-2],"split_indices":[38,28,28,36,28,38,38,0,0,0,0,0,0,0,0],"split_type":[0,0,0,0,0,0,0,0,0,0,0,0,0,0,0],"sum_hessian":[1.0787E4,7.962E3,2.825E3,7.662E3,3E2,6.1E2,2.215E3,7.508E3,1.54E2,2.71E2,2.9E1,5.55E2,5.5E1,9.62E2,1.253E3],"tree_param":{"num_deleted":"0","num_feature":"44","num_nodes":"15","size_leaf_vector":"1"}},{"base_weights":[-1.1659187E-1,-5.4127824E-1,5.355861E-1,-2.4367502E-1,-3.9052486E0,3.5279675E0,-1.9695684E-2,-4.6017777E-2,1.6732533E-2,-1.6557868E-1,-5.04633E-1,1.341408E-1,4.1146165E-1,3.3734802E-2,-5.713768E-2],"categories":[],"categories_nodes":[],"categories_segments":[],"categories_sizes":[],"default_left":[0,0,0,0,0,0,0,0,0,0,0,0,0,0,0],"id":23,"left_children":[1,3,5,7,9,11,13,-1,-1,-1,-1,-1,-1,-1,-1],"loss_changes":[2.988254E3,6.5404214E3,7.0702407E3,2.3499233E3,1.9171074E3,2.624128E3,2.8004043E3,0E0,0E0,0E0,0E0,0E0,0E0,0E0,0E0],"parents":[2147483647,0,0,1,1,2,2,3,3,4,4,5,5,6,6],"right_children":[2,4,6,8,10,12,14,-1,-1,-1,-1,-1,-1,-1,-1],"split_conditions":[5.5441193E1,5.5432884E1,5.6336044E1,4.3229336E1,6.430789E1,6.1563698E1,6.757323E1,-4.6017777E-2,1.6732533E-2,-1.6557868E-1,-5.04633E-1,1.341408E-1,4.1146165E-1,3.3734802E-2,-5.713768E-2],"split_indices":[38,28,28,38,28,38,28,0,0,0,0,0,0,0,0],"split_type":[0,0,0,0,0,0,0,0,0,0,0,0,0,0,0],"sum_hessian":[1.0787E4,6.533E3,4.254E3,6.003E3,5.3E2,6.65E2,3.589E3,2.766E3,3.237E3,4.85E2,4.5E1,5.65E2,1E2,2.218E3,1.371E3],"tree_param":{"num_deleted":"0","num_feature":"44","num_nodes":"15","size_leaf_vector":"1"}},{"base_weights":[-1.10778704E-1,-2.7459884E-1,1.5438849E0,-1.2798098E-1,-5.9547806E0,9.690549E0,4.6092376E-1,-2.7934564E-2,2.6847348E-2,-5.0221074E-1,-2.323339E-1,3.937078E-1,8.679809E-1,4.2674537E-3,2.9747957E-1],"categories":[],"categories_nodes":[],"categories_segments":[],"categories_sizes":[],"default_left":[0,0,0,0,0,0,0,0,0,0,0,0,0,0,0],"id":24,"left_children":[1,3,5,7,9,11,13,-1,-1,-1,-1,-1,-1,-1,-1],"loss_changes":[2.924697E3,8.174993E3,8.571023E3,2.741351E3,1.2746289E3,1.451332E3,1.7702386E3,0E0,0E0,0E0,0E0,0E0,0E0,0E0,0E0],"parents":[2147483647,0,0,1,1,2,2,3,3,4,4,5,5,6,6],"right_children":[2,4,6,8,10,12,14,-1,-1,-1,-1,-1,-1,-1,-1],"split_conditions":[7.021639E1,7.021639E1,6.757323E1,5.3159267E1,6.3146805E1,7.51663E1,2.9151E4,-2.7934564E-2,2.6847348E-2,-5.0221074E-1,-2.323339E-1,3.937078E-1,8.679809E-1,4.2674537E-3,2.9747957E-1],"split_indices":[38,28,28,38,38,38,36,0,0,0,0,0,0,0,0],"split_type":[0,0,0,0,0,0,0,0,0,0,0,0,0,0,0],"sum_hessian":[1.0787E4,9.816E3,9.71E2,9.57E3,2.46E2,1.13E2,8.58E2,5.808E3,3.762E3,5.8E1,1.88E2,9.3E1,2E1,8.04E2,5.4E1],"tree_param":{"num_deleted":"0","num_feature":"44","num_nodes":"15","size_leaf_vector":"1"}},{"base_weights":[-1.05163045E-1,-2.0123123E-1,2.5194638E0,-5.06686E-2,-4.142066E0,1.5193221E1,1.5867751E0,-1.7241392E-2,6.5103255E-2,-4.6018502E-1,-1.5392563E-1,9.0328187E-1,3.880127E-1,2.6766407E-1,2.8121447E-2],"categories":[],"categories_nodes":[],"categories_segments":[],"categories_sizes":[],"default_left":[0,0,0,0,0,0,0,0,0,0,0,0,0,0,0],"id":25,"left_children":[1,3,5,7,9,11,13,-1,-1,-1,-1,-1,-1,-1,-1],"loss_changes":[2.720627E3,6.175298E3,4.479567E3,3.9899863E3,2.0334775E3,4.149214E2,1.3705105E3,0E0,0E0,0E0,0E0,0E0,0E0,0E0,0E0],"parents":[2147483647,0,0,1,1,2,2,3,3,4,4,5,5,6,6],"right_children":[2,4,6,8,10,12,14,-1,-1,-1,-1,-1,-1,-1,-1],"split_conditions":[7.565349E1,7.233888E1,6.9368515E1,6.191857E1,6.656075E1,1.8354E4,7.51663E1,-1.7241392E-2,6.5103255E-2,-4.6018502E-1,-1.5392563E-1,9.0328187E-1,3.880127E-1,2.6766407E-1,2.8121447E-2],"split_indices":[38,28,28,38,38,26,28,0,0,0,0,0,0,0,0],"split_type":[0,0,0,0,0,0,0,0,0,0,0,0,0,0,0],"sum_hessian":[1.0787E4,1.0407E4,3.8E2,1.0025E4,3.82E2,2.5E1,3.55E2,8.235E3,1.79E3,6.5E1,3.17E2,1.7E1,8E0,7.5E1,2.8E2],"tree_param":{"num_deleted":"0","num_feature":"44","num_nodes":"15","size_leaf_vector":"1"}},{"base_weights":[-9.9810265E-2,-2.517919E-1,1.4352757E0,-6.271489E-2,-4.0372467E0,9.033772E0,4.251896E-1,-1.8528653E-2,5.4546278E-2,-3.6578867E-1,-1.4347829E-1,3.7101132E-1,7.913068E-1,9.722285E-3,4.0575147E-1],"categories":[],"categories_nodes":[],"categories_segments":[],"categories_sizes":[],"default_left":[0,0,0,0,0,0,0,0,0,0,0,0,0,0,0],"id":26,"left_children":[1,3,5,7,9,11,13,-1,-1,-1,-1,-1,-1,-1,-1],"loss_changes":[2.5172546E3,7.02619E3,7.4563906E3,3.321483E3,1.7668105E3,1.1319834E3,1.5226176E3,0E0,0E0,0E0,0E0,0E0,0E0,0E0,0E0],"parents":[2147483647,0,0,1,1,2,2,3,3,4,4,5,5,6,6],"right_children":[2,4,6,8,10,12,14,-1,-1,-1,-1,-1,-1,-1,-1],"split_conditions":[7.021639E1,6.795713E1,6.757323E1,5.8596416E1,6.3923702E1,7.51663E1,4.0136E4,-1.8528653E-2,5.4546278E-2,-3.6578867E-1,-1.4347829E-1,3.7101132E-1,7.913068E-1,9.722285E-3,4.0575147E-1],"split_indices":[38,28,28,38,38,38,36,0,0,0,0,0,0,0,0],"split_type":[0,0,0,0,0,0,0,0,0,0,0,0,0,0,0],"sum_hessian":[1.0787E4,9.816E3,9.71E2,9.35E3,4.66E2,1.13E2,8.58E2,7.381E3,1.969E3,1.21E2,3.45E2,9.3E1,2E1,8.34E2,2.4E1],"tree_param":{"num_deleted":"0","num_feature":"44","num_nodes":"15","size_leaf_vector":"1"}},{"base_weights":[-9.471735E-2,-1.3351353E0,8.2701765E-2,-1.1641216E-1,-6.013043E0,3.784798E0,-7.940712E-2,-7.316753E-2,4.932242E-2,-1.8761624E-1,-5.895316E-1,1.6665201E-1,6.286599E-1,-4.565069E-2,1.2981129E-2],"categories":[],"categories_nodes":[],"categories_segments":[],"categories_sizes":[],"default_left":[0,0,0,0,0,0,0,0,0,0,0,0,0,0,0],"id":27,"left_children":[1,3,5,7,9,11,13,-1,-1,-1,-1,-1,-1,-1,-1],"loss_changes":[2.3742676E3,7.69575E3,5.6650474E3,1.5938838E3,3.599917E3,1.5303027E3,2.556229E3,0E0,0E0,0E0,0E0,0E0,0E0,0E0,0E0],"parents":[2147483647,0,0,1,1,2,2,3,3,4,4,5,5,6,6],"right_children":[2,4,6,8,10,12,14,-1,-1,-1,-1,-1,-1,-1,-1],"split_conditions":[3.6463066E1,3.66595E1,3.748725E1,2.9635422E1,8.147434E0,3.0448E3,4.853739E1,-7.316753E-2,4.932242E-2,-1.8761624E-1,-5.895316E-1,1.6665201E-1,6.286599E-1,-4.565069E-2,1.2981129E-2],"split_indices":[38,28,28,38,39,1,38,0,0,0,0,0,0,0,0],"split_type":[0,0,0,0,0,0,0,0,0,0,0,0,0,0,0],"sum_hessian":[1.0787E4,1.349E3,9.438E3,1.071E3,2.78E2,3.95E2,9.043E3,4.82E2,5.89E2,2.01E2,7.7E1,3.77E2,1.8E1,2.614E3,6.429E3],"tree_param":{"num_deleted":"0","num_feature":"44","num_nodes":"15","size_leaf_vector":"1"}},{"base_weights":[-8.998505E-2,-1.7809851E-1,2.3172982E0,-3.6670703E-2,-3.8798664E0,1.0866734E1,1.1399429E0,-1.2784279E-2,7.422438E-2,-4.244413E-1,-1.4555445E-1,7.518887E-1,3.5399327E-1,3.8637877E-2,4.4730964E-1],"categories":[],"categories_nodes":[],"categories_segments":[],"categories_sizes":[],"default_left":[0,0,0,0,0,0,0,0,0,0,0,0,0,0,0],"id":28,"left_children":[1,3,5,7,9,11,13,-1,-1,-1,-1,-1,-1,-1,-1],"loss_changes":[2.288699E3,5.448788E3,3.822653E3,3.3406042E3,1.6854048E3,6.201128E2,9.561773E2,0E0,0E0,0E0,0E0,0E0,0E0,0E0,0E0],"parents":[2147483647,0,0,1,1,2,2,3,3,4,4,5,5,6,6],"right_children":[2,4,6,8,10,12,14,-1,-1,-1,-1,-1,-1,-1,-1],"split_conditions":[7.565349E1,7.233888E1,7.233888E1,6.43125E1,6.656075E1,6.264913E1,4.0136E4,-1.2784279E-2,7.422438E-2,-4.244413E-1,-1.4555445E-1,7.518887E-1,3.5399327E-1,3.8637877E-2,4.4730964E-1],"split_indices":[38,28,28,38,38,17,36,0,0,0,0,0,0,0,0],"split_type":[0,0,0,0,0,0,0,0,0,0,0,0,0,0,0],"sum_hessian":[1.0787E4,1.0407E4,3.8E2,1.0025E4,3.82E2,4.5E1,3.35E2,8.764E3,1.261E3,6.5E1,3.17E2,2E1,2.5E1,3.21E2,1.4E1],"tree_param":{"num_deleted":"0","num_feature":"44","num_nodes":"15","size_leaf_vector":"1"}},{"base_weights":[-8.5385375E-2,-1.9716012E-1,1.7020891E0,-5.6481764E-2,-4.664197E0,1.0228957E1,7.284489E-1,-1.4429623E-2,5.2749045E-2,-5.952334E-1,-2.034885E-1,3.9080486E-1,7.829622E-1,1.140202E-2,2.2446561E-1],"categories":[],"categories_nodes":[],"categories_segments":[],"categories_sizes":[],"default_left":[0,0,0,0,0,0,0,0,0,0,0,0,0,0,0],"id":29,"left_children":[1,3,5,7,9,11,13,-1,-1,-1,-1,-1,-1,-1,-1],"loss_changes":[2.1557188E3,6.3806665E3,5.2643823E3,2.5401409E3,1.2857695E3,7.2926953E2,1.0735801E3,0E0,0E0,0E0,0E0,0E0,0E0,0E0,0E0],"parents":[2147483647,0,0,1,1,2,2,3,3,4,4,5,5,6,6],"right_children":[2,4,6,8,10,12,14,-1,-1,-1,-1,-1,-1,-1,-1],"split_conditions":[7.303092E1,7.1228195E1,6.9368515E1,6.1563698E1,5.9585846E1,6.9461427E0,2.3483E4,-1.4429623E-2,5.2749045E-2,-5.952334E-1,-2.034885E-1,3.9080486E-1,7.829622E-1,1.140202E-2,2.2446561E-1],"split_indices":[38,28,28,38,38,39,36,0,0,0,0,0,0,0,0],"split_type":[0,0,0,0,0,0,0,0,0,0,0,0,0,0,0],"sum_hessian":[1.0787E4,1.0153E4,6.34E2,9.844E3,3.09E2,6.4E1,5.7E2,8.144E3,1.7E3,2.2E1,2.87E2,4.6E1,1.8E1,5.04E2,6.6E1],"tree_param":{"num_deleted":"0","num_feature":"44","num_nodes":"15","size_leaf_vector":"1"}},{"base_weights":[-8.105595E-2,1.2934938E-1,-1.0153718E0,-4.0214084E-2,6.0297704E0,-3.998082E0,1.4667457E-1,-1.8883612E-2,4.3467637E-2,2.3283432E-1,5.594245E-1,-3.980661E-1,-1.5715949E-1,-2.4880966E-2,8.87671E-2],"categories":[],"categories_nodes":[],"categories_segments":[],"categories_sizes":[],"default_left":[0,0,0,0,0,0,0,0,0,0,0,0,0,0,0],"id":30,"left_children":[1,3,5,7,9,11,13,-1,-1,-1,-1,-1,-1,-1,-1],"loss_changes":[2.1208906E3,8.810608E3,6.8737583E3,2.6280479E3,1.6904043E3,1.8587842E3,1.4993414E3,0E0,0E0,0E0,0E0,0E0,0E0,0E0,0E0],"parents":[2147483647,0,0,1,1,2,2,3,3,4,4,5,5,6,6],"right_children":[2,4,6,8,10,12,14,-1,-1,-1,-1,-1,-1,-1,-1],"split_conditions":[6.430789E1,6.541034E1,6.6275696E1,5.463594E1,7.021639E1,5.896736E1,1.0835E4,-1.8883612E-2,4.3467637E-2,2.3283432E-1,5.594245E-1,-3.980661E-1,-1.5715949E-1,-2.4880966E-2,8.87671E-2],"split_indices":[28,38,38,38,38,38,36,0,0,0,0,0,0,0,0],"split_type":[0,0,0,0,0,0,0,0,0,0,0,0,0,0,0],"sum_hessian":[1.0787E4,8.805E3,1.982E3,8.56E3,2.45E2,5.55E2,1.427E3,6.244E3,2.316E3,1.95E2,5E1,9.7E1,4.58E2,1.023E3,4.04E2],"tree_param":{"num_deleted":"0","num_feature":"44","num_nodes":"15","size_leaf_vector":"1"}},{"base_weights":[-7.697298E-2,-1.4048272E0,6.6951744E-2,-2.5660753E-1,-6.803176E0,5.0270963E0,-5.0408877E-2,2.6847214E-2,-1.0772877E-1,-1.9099195E-1,-5.769761E-1,2.064418E-1,9.1351193E-1,9.616321E-3,-4.7414433E-2],"categories":[],"categories_nodes":[],"categories_segments":[],"categories_sizes":[],"default_left":[0,0,0,0,0,0,0,0,0,0,0,0,0,0,0],"id":31,"left_children":[1,3,5,7,9,11,13,-1,-1,-1,-1,-1,-1,-1,-1],"loss_changes":[2.0618E3,6.537662E3,5.6666646E3,1.3130011E3,2.5699922E3,2.6011162E3,2.0728594E3,0E0,0E0,0E0,0E0,0E0,0E0,0E0,0E0],"parents":[2147483647,0,0,1,1,2,2,3,3,4,4,5,5,6,6],"right_children":[2,4,6,8,10,12,14,-1,-1,-1,-1,-1,-1,-1,-1],"split_conditions":[3.464665E1,3.573993E1,3.426942E1,1.2109E4,7.2147093E0,2.9138E3,6.41074E1,2.6847214E-2,-1.0772877E-1,-1.9099195E-1,-5.769761E-1,2.064418E-1,9.1351193E-1,9.616321E-3,-4.7414433E-2],"split_indices":[38,28,28,36,39,23,28,0,0,0,0,0,0,0,0],"split_type":[0,0,0,0,0,0,0,0,0,0,0,0,0,0,0],"sum_hessian":[1.0787E4,1.054E3,9.733E3,8.7E2,1.84E2,2.24E2,9.509E3,6.14E2,2.56E2,1.14E2,7E1,2.11E2,1.3E1,7.486E3,2.023E3],"tree_param":{"num_deleted":"0","num_feature":"44","num_nodes":"15","size_leaf_vector":"1"}},{"base_weights":[-7.3102705E-2,-2.0415173E-1,1.3178731E0,2.4292774E-2,-2.7026892E0,7.74431E0,3.3674595E-1,-9.743235E-3,9.870598E-2,-2.8694728E-1,-8.520678E-2,2.2611597E-1,5.100164E-1,6.614151E-3,3.500919E-1],"categories":[],"categories_nodes":[],"categories_segments":[],"categories_sizes":[],"default_left":[0,0,0,0,0,0,0,0,0,0,0,0,0,0,0],"id":32,"left_children":[1,3,5,7,9,11,13,-1,-1,-1,-1,-1,-1,-1,-1],"loss_changes":[1.9667708E3,5.6279287E3,5.854878E3,3.861213E3,2.49454E3,9.2720264E2,1.0988246E3,0E0,0E0,0E0,0E0,0E0,0E0,0E0,0E0],"parents":[2147483647,0,0,1,1,2,2,3,3,4,4,5,5,6,6],"right_children":[2,4,6,8,10,12,14,-1,-1,-1,-1,-1,-1,-1,-1],"split_conditions":[7.0591866E1,6.586441E1,6.826004E1,6.191857E1,6.3504856E1,5.9897785E0,4.0136E4,-9.743235E-3,9.870598E-2,-2.8694728E-1,-8.520678E-2,2.2611597E-1,5.100164E-1,6.614151E-3,3.500919E-1],"split_indices":[38,28,28,38,38,39,36,0,0,0,0,0,0,0,0],"split_type":[0,0,0,0,0,0,0,0,0,0,0,0,0,0,0],"sum_hessian":[1.0787E4,9.859E3,9.28E2,9.034E3,8.25E2,1.22E2,8.06E2,8.122E3,9.12E2,2.03E2,6.22E2,5.4E1,6.8E1,7.83E2,2.3E1],"tree_param":{"num_deleted":"0","num_feature":"44","num_nodes":"15","size_leaf_vector":"1"}},{"base_weights":[-6.9372535E-2,-9.851308E-1,1.2612613E-1,-1.6173287E-1,-4.7175565E0,3.0783713E0,-6.9289386E-2,-3.6062642E-3,-7.0039266E-1,-1.307565E-1,-3.873698E-1,9.2032146E-1,1.4095616E-1,-4.9881704E-2,1.1080289E-2],"categories":[],"categories_nodes":[],"categories_segments":[],"categories_sizes":[],"default_left":[0,0,0,0,0,0,0,0,0,0,0,0,0,0,0],"id":33,"left_children":[1,3,5,7,9,11,13,-1,-1,-1,-1,-1,-1,-1,-1],"loss_changes":[1.9314948E3,5.8323066E3,5.12956E3,1.9295458E3,2.1646548E3,2.1416304E3,2.2524463E3,0E0,0E0,0E0,0E0,0E0,0E0,0E0,0E0],"parents":[2147483647,0,0,1,1,2,2,3,3,4,4,5,5,6,6],"right_children":[2,4,6,8,10,12,14,-1,-1,-1,-1,-1,-1,-1,-1],"split_conditions":[3.9396942E1,3.9609875E1,4.0764523E1,3.3218E3,6.612188E0,-5.565093E0,4.8693375E1,-3.6062642E-3,-7.0039266E-1,-1.307565E-1,-3.873698E-1,9.2032146E-1,1.4095616E-1,-4.9881704E-2,1.1080289E-2],"split_indices":[38,28,28,24,39,32,38,0,0,0,0,0,0,0,0],"split_type":[0,0,0,0,0,0,0,0,0,0,0,0,0,0,0],"sum_hessian":[1.0787E4,1.897E3,8.89E3,1.555E3,3.42E2,5.51E2,8.339E3,1.546E3,9E0,2.03E2,1.39E2,8E0,5.43E2,1.989E3,6.35E3],"tree_param":{"num_deleted":"0","num_feature":"44","num_nodes":"15","size_leaf_vector":"1"}},{"base_weights":[-6.59224E-2,-2.0170345E0,2.1963412E-2,-9.290406E-1,-1.2952569E1,4.234688E0,-9.331233E-2,5.2727573E-3,-1.439557E-1,-3.266403E-1,-9.5306236E-1,1.8153071E-1,8.5857075E-1,-9.6994154E-2,2.7156128E-3],"categories":[],"categories_nodes":[],"categories_segments":[],"categories_sizes":[],"default_left":[0,0,0,0,0,0,0,0,0,0,0,0,0,0,0],"id":34,"left_children":[1,3,5,7,9,11,13,-1,-1,-1,-1,-1,-1,-1,-1],"loss_changes":[1.8499175E3,5.520442E3,5.013987E3,8.556569E2,1.5225596E3,2.0867095E3,2.7397278E3,0E0,0E0,0E0,0E0,0E0,0E0,0E0,0E0],"parents":[2147483647,0,0,1,1,2,2,3,3,4,4,5,5,6,6],"right_children":[2,4,6,8,10,12,14,-1,-1,-1,-1,-1,-1,-1,-1],"split_conditions":[2.9114902E1,3.3353054E1,3.1464073E1,1.2109E4,7.0934777E0,3.0545E3,3.696339E1,5.2727573E-3,-1.439557E-1,-3.266403E-1,-9.5306236E-1,1.8153071E-1,8.5857075E-1,-9.6994154E-2,2.7156128E-3],"split_indices":[38,28,28,36,39,33,38,0,0,0,0,0,0,0,0],"split_type":[0,0,0,0,0,0,0,0,0,0,0,0,0,0,0],"sum_hessian":[1.0787E4,4.64E2,1.0323E4,4.23E2,4.1E1,2.74E2,1.0049E4,2.77E2,1.46E2,2.1E1,2E1,2.63E2,1.1E1,7.43E2,9.306E3],"tree_param":{"num_deleted":"0","num_feature":"44","num_nodes":"15","size_leaf_vector":"1"}},{"base_weights":[-6.2670074E-2,1.6807671E-1,-7.994571E-1,-1.2236771E-2,5.2976837E0,-3.482077E0,1.05384395E-1,-1.671261E-2,4.542868E-2,1.9160298E-1,4.8513708E-1,-3.001635E-1,-1.2945066E-1,-8.051097E-3,1.664364E-1],"categories":[],"categories_nodes":[],"categories_segments":[],"categories_sizes":[],"default_left":[0,0,0,0,0,0,0,0,0,0,0,0,0,0,0],"id":35,"left_children":[1,3,5,7,9,11,13,-1,-1,-1,-1,-1,-1,-1,-1],"loss_changes":[1.8342156E3,7.599349E3,6.245927E3,2.3540408E3,1.7640879E3,1.4457378E3,1.6535703E3,0E0,0E0,0E0,0E0,0E0,0E0,0E0,0E0],"parents":[2147483647,0,0,1,1,2,2,3,3,4,4,5,5,6,6],"right_children":[2,4,6,8,10,12,14,-1,-1,-1,-1,-1,-1,-1,-1],"split_conditions":[6.1761208E1,6.2958687E1,6.3504856E1,5.3568462E1,8.373292E0,5.795662E1,2.3483E4,-1.671261E-2,4.542868E-2,1.9160298E-1,4.8513708E-1,-3.001635E-1,-1.2945066E-1,-8.051097E-3,1.664364E-1],"split_indices":[28,38,38,38,39,38,36,0,0,0,0,0,0,0,0],"split_type":[0,0,0,0,0,0,0,0,0,0,0,0,0,0,0],"sum_hessian":[1.0787E4,8.215E3,2.572E3,7.937E3,2.78E2,6.48E2,1.924E3,5.881E3,2.056E3,2.1E2,6.8E1,1.68E2,4.8E2,1.778E3,1.46E2],"tree_param":{"num_deleted":"0","num_feature":"44","num_nodes":"15","size_leaf_vector":"1"}},{"base_weights":[-5.9496306E-2,-1.3686517E-1,2.0541904E0,-5.2147597E-2,-5.090367E0,7.8578715E0,6.764463E-1,-7.993587E-2,2.8528022E-3,-3.7113822E-1,-1.920036E-1,3.364308E-1,1.2827686E0,-1.2367605E-2,1.5769255E-1],"categories":[],"categories_nodes":[],"categories_segments":[],"categories_sizes":[],"default_left":[0,0,0,0,0,0,0,0,0,0,0,0,0,0,0],"id":36,"left_children":[1,3,5,7,9,11,13,-1,-1,-1,-1,-1,-1,-1,-1],"loss_changes":[1.7644807E3,4.3674375E3,3.0411555E3,1.7285222E3,4.818286E2,1.2945239E3,7.079645E2,0E0,0E0,0E0,0E0,0E0,0E0,0E0,0E0],"parents":[2147483647,0,0,1,1,2,2,3,3,4,4,5,5,6,6],"right_children":[2,4,6,8,10,12,14,-1,-1,-1,-1,-1,-1,-1,-1],"split_conditions":[7.565349E1,7.475613E1,7.382595E1,3.1464073E1,6.963866E1,8.2052574E1,8.2052574E1,-7.993587E-2,2.8528022E-3,-3.7113822E-1,-1.920036E-1,3.364308E-1,1.2827686E0,-1.2367605E-2,1.5769255E-1],"split_indices":[38,28,28,38,38,38,38,0,0,0,0,0,0,0,0],"split_type":[0,0,0,0,0,0,0,0,0,0,0,0,0,0,0],"sum_hessian":[1.0787E4,1.0407E4,3.8E2,1.0233E4,1.74E2,7.2E1,3.08E2,6.74E2,9.559E3,5.9E1,1.15E2,6.9E1,3E0,2.25E2,8.3E1],"tree_param":{"num_deleted":"0","num_feature":"44","num_nodes":"15","size_leaf_vector":"1"}},{"base_weights":[-5.641728E-2,1.4509934E-1,-8.267855E-1,-2.9291883E-3,5.5739117E0,-3.1452687E0,2.1804444E-1,-1.541086E-2,4.1896086E-2,2.0285277E-1,5.4312205E-1,-3.1276652E-1,-1.17121376E-1,7.628976E-2,-2.695079E-2],"categories":[],"categories_nodes":[],"categories_segments":[],"categories_sizes":[],"default_left":[0,0,0,0,0,0,0,0,0,0,0,0,0,0,0],"id":37,"left_children":[1,3,5,7,9,11,13,-1,-1,-1,-1,-1,-1,-1,-1],"loss_changes":[1.6748706E3,6.872567E3,5.419641E3,2.1375564E3,1.7769111E3,1.7206826E3,1.5284634E3,0E0,0E0,0E0,0E0,0E0,0E0,0E0,0E0],"parents":[2147483647,0,0,1,1,2,2,3,3,4,4,5,5,6,6],"right_children":[2,4,6,8,10,12,14,-1,-1,-1,-1,-1,-1,-1,-1],"split_conditions":[6.3140934E1,6.474213E1,6.586025E1,5.4258545E1,1.6072398E0,5.9104843E1,6.9368515E1,-1.541086E-2,4.1896086E-2,2.0285277E-1,5.4312205E-1,-3.1276652E-1,-1.17121376E-1,7.628976E-2,-2.695079E-2],"split_indices":[28,38,38,38,42,38,28,0,0,0,0,0,0,0,0],"split_type":[0,0,0,0,0,0,0,0,0,0,0,0,0,0,0],"sum_hessian":[1.0787E4,8.551E3,2.236E3,8.325E3,2.26E2,6.94E2,1.542E3,6.108E3,2.217E3,1.77E2,4.9E1,1.41E2,5.53E2,5.65E2,9.77E2],"tree_param":{"num_deleted":"0","num_feature":"44","num_nodes":"15","size_leaf_vector":"1"}},{"base_weights":[-5.356008E-2,-1.5821141E-1,1.4144024E0,-1.9076444E-2,-3.944032E0,7.901957E0,5.885304E-1,-1.1304325E-2,4.497236E-2,-1.4700365E-1,-3.302373E-1,7.428813E-1,3.1768513E-1,7.43166E-3,1.7243508E-1],"categories":[],"categories_nodes":[],"categories_segments":[],"categories_sizes":[],"default_left":[0,0,0,0,0,0,0,0,0,0,0,0,0,0,0],"id":38,"left_children":[1,3,5,7,9,11,13,-1,-1,-1,-1,-1,-1,-1,-1],"loss_changes":[1.6575219E3,5.3047227E3,3.8423142E3,1.8474487E3,9.342173E2,7.779004E2,8.022071E2,0E0,0E0,0E0,0E0,0E0,0E0,0E0,0E0],"parents":[2147483647,0,0,1,1,2,2,3,3,4,4,5,5,6,6],"right_children":[2,4,6,8,10,12,14,-1,-1,-1,-1,-1,-1,-1,-1],"split_conditions":[7.233888E1,7.021639E1,6.9368515E1,6.0731632E1,8.147434E0,1.474E3,8.2052574E1,-1.1304325E-2,4.497236E-2,-1.4700365E-1,-3.302373E-1,7.428813E-1,3.1768513E-1,7.43166E-3,1.7243508E-1],"split_indices":[38,28,28,38,39,4,38,0,0,0,0,0,0,0,0],"split_type":[0,0,0,0,0,0,0,0,0,0,0,0,0,0,0],"sum_hessian":[1.0787E4,1.007E4,7.17E2,9.714E3,3.56E2,8E1,6.37E2,7.928E3,1.786E3,2.6E2,9.6E1,1.3E1,6.7E1,5.53E2,8.4E1],"tree_param":{"num_deleted":"0","num_feature":"44","num_nodes":"15","size_leaf_vector":"1"}},{"base_weights":[-5.0808206E-2,1.2989516E0,-1.6535285E-1,-1.5102279E-1,4.6113486E0,-8.642666E0,-8.705748E-2,7.5445476E-4,-4.432859E-1,1.9447343E-1,8.930642E-1,-2.1551163E-1,-7.4245924E-1,-8.6200684E-2,2.6425286E-3],"categories":[],"categories_nodes":[],"categories_segments":[],"categories_sizes":[],"default_left":[0,0,0,0,0,0,0,0,0,0,0,0,0,0,0],"id":39,"left_children":[1,3,5,7,9,11,13,-1,-1,-1,-1,-1,-1,-1,-1],"loss_changes":[1.6681232E3,4.0543362E3,6.600086E3,8.513311E2,2.3886982E3,2.3829253E3,2.2571162E3,0E0,0E0,0E0,0E0,0E0,0E0,0E0,0E0],"parents":[2147483647,0,0,1,1,2,2,3,3,4,4,5,5,6,6],"right_children":[2,4,6,8,10,12,14,-1,-1,-1,-1,-1,-1,-1,-1],"split_conditions":[3.293661E1,3.1865152E1,3.1139233E1,4.0136E4,2.9138E3,7.514405E0,3.8220413E1,7.5445476E-4,-4.432859E-1,1.9447343E-1,8.930642E-1,-2.1551163E-1,-7.4245924E-1,-8.6200684E-2,2.6425286E-3],"split_indices":[28,38,38,36,23,39,38,0,0,0,0,0,0,0,0],"split_type":[0,0,0,0,0,0,0,0,0,0,0,0,0,0,0],"sum_hessian":[1.0787E4,8.43E2,9.944E3,5.87E2,2.56E2,9E1,9.854E3,5.77E2,1E1,2.44E2,1.2E1,5.4E1,3.6E1,7.75E2,9.079E3],"tree_param":{"num_deleted":"0","num_feature":"44","num_nodes":"15","size_leaf_vector":"1"}},{"base_weights":[-4.8304558E-2,1.7001337E-1,-7.454098E-1,-4.0414914E-2,3.7594075E0,-3.613167E0,-3.9908294E-2,4.7244396E-2,-1.2784371E-2,1.633471E-1,6.43358E-1,-1.23472884E-1,-2.9773042E-1,-4.992994E-2,3.1619575E-2],"categories":[],"categories_nodes":[],"categories_segments":[],"categories_sizes":[],"default_left":[0,0,0,0,0,0,0,0,0,0,0,0,0,0,0],"id":40,"left_children":[1,3,5,7,9,11,13,-1,-1,-1,-1,-1,-1,-1,-1],"loss_changes":[1.6419586E3,6.20578E3,5.205568E3,1.6466287E3,1.9987554E3,1.3456831E3,1.3322252E3,0E0,0E0,0E0,0E0,0E0,0E0,0E0,0E0],"parents":[2147483647,0,0,1,1,2,2,3,3,4,4,5,5,6,6],"right_children":[2,4,6,8,10,12,14,-1,-1,-1,-1,-1,-1,-1,-1],"split_conditions":[6.1761208E1,6.1563698E1,6.248036E1,3.66595E1,3.0545E3,7.4293237E0,6.826004E1,4.7244396E-2,-1.2784371E-2,1.633471E-1,6.43358E-1,-1.23472884E-1,-2.9773042E-1,-4.992994E-2,3.1619575E-2],"split_indices":[28,38,38,28,33,39,38,0,0,0,0,0,0,0,0],"split_type":[0,0,0,0,0,0,0,0,0,0,0,0,0,0,0],"sum_hessian":[1.0787E4,8.215E3,2.572E3,7.761E3,4.54E2,5.07E2,2.065E3,1.391E3,6.37E3,4.32E2,2.2E1,3.42E2,1.65E2,8.51E2,1.214E3],"tree_param":{"num_deleted":"0","num_feature":"44","num_nodes":"15","size_leaf_vector":"1"}},{"base_weights":[-4.5852095E-2,1.2695077E-1,-8.5427254E-1,-2.0933786E-2,4.8120327E0,-3.5362785E0,7.515745E-2,-2.9986594E-2,1.5714046E-2,1.569136E-1,3.9487395E-1,-1.5508148E-1,-4.8233405E-1,-7.2000697E-3,1.7279778E-1],"categories":[],"categories_nodes":[],"categories_segments":[],"categories_sizes":[],"default_left":[0,0,0,0,0,0,0,0,0,0,0,0,0,0,0],"id":41,"left_children":[1,3,5,7,9,11,13,-1,-1,-1,-1,-1,-1,-1,-1],"loss_changes":[1.5071636E3,6.1588555E3,4.736466E3,1.6722668E3,1.3799043E3,1.2688047E3,1.0466935E3,0E0,0E0,0E0,0E0,0E0,0E0,0E0,0E0],"parents":[2147483647,0,0,1,1,2,2,3,3,4,4,5,5,6,6],"right_children":[2,4,6,8,10,12,14,-1,-1,-1,-1,-1,-1,-1,-1],"split_conditions":[6.474197E1,6.541034E1,6.6275696E1,4.4635696E1,6.8500626E1,1.1863037E1,8.2052574E1,-2.9986594E-2,1.5714046E-2,1.569136E-1,3.9487395E-1,-1.5508148E-1,-4.8233405E-1,-7.2000697E-3,1.7279778E-1],"split_indices":[28,38,38,38,38,30,38,0,0,0,0,0,0,0,0],"split_type":[0,0,0,0,0,0,0,0,0,0,0,0,0,0,0],"sum_hessian":[1.0787E4,8.888E3,1.899E3,8.617E3,2.71E2,4.88E2,1.411E3,3.16E3,5.457E3,1.77E2,9.4E1,4.57E2,3.1E1,1.326E3,8.5E1],"tree_param":{"num_deleted":"0","num_feature":"44","num_nodes":"15","size_leaf_vector":"1"}},{"base_weights":[-4.3553397E-2,9.261651E-1,-1.8719548E-1,-1.788577E-1,3.4154663E0,-4.983924E0,-4.041684E-2,2.4598774E-2,-9.192029E-2,5.236421E-1,1.3703118E-1,-2.0830445E-1,-9.5500374E-1,1.6250033E-2,-2.499461E-2],"categories":[],"categories_nodes":[],"categories_segments":[],"categories_sizes":[],"default_left":[0,0,0,0,0,0,0,0,0,0,0,0,0,0,0],"id":42,"left_children":[1,3,5,7,9,11,13,-1,-1,-1,-1,-1,-1,-1,-1],"loss_changes":[1.5028596E3,3.8296338E3,6.6158247E3,1.0752194E3,2.0096987E3,3.1413916E3,1.5312454E3,0E0,0E0,0E0,0E0,0E0,0E0,0E0,0E0],"parents":[2147483647,0,0,1,1,2,2,3,3,4,4,5,5,6,6],"right_children":[2,4,6,8,10,12,14,-1,-1,-1,-1,-1,-1,-1,-1],"split_conditions":[3.66595E1,3.522965E1,3.6463066E1,1.2109E4,-1.1530616E1,3.0403E3,5.618139E1,2.4598774E-2,-9.192029E-2,5.236421E-1,1.3703118E-1,-2.0830445E-1,-9.5500374E-1,1.6250033E-2,-2.499461E-2],"split_indices":[28,38,38,36,30,25,28,0,0,0,0,0,0,0,0],"split_type":[0,0,0,0,0,0,0,0,0,0,0,0,0,0,0],"sum_hessian":[1.0787E4,1.391E3,9.396E3,9.64E2,4.27E2,2.78E2,9.118E3,6.87E2,2.77E2,3.6E1,3.91E2,2.64E2,1.4E1,5.079E3,4.039E3],"tree_param":{"num_deleted":"0","num_feature":"44","num_nodes":"15","size_leaf_vector":"1"}},{"base_weights":[-4.142937E-2,1.1632626E0,-1.4933892E-1,-3.5769457E-1,3.6585157E0,-8.716783E0,-7.779022E-2,-9.695939E-3,-4.1974282E-1,1.5477245E-1,8.193976E-1,-1.7894527E-1,-6.883685E-1,-6.1556328E-2,5.268515E-3],"categories":[],"categories_nodes":[],"categories_segments":[],"categories_sizes":[],"default_left":[0,0,0,0,0,0,0,0,0,0,0,0,0,0,0],"id":43,"left_children":[1,3,5,7,9,11,13,-1,-1,-1,-1,-1,-1,-1,-1],"loss_changes":[1.4025897E3,3.3676274E3,6.069144E3,7.249655E2,2.3575605E3,2.0785708E3,2.0747737E3,0E0,0E0,0E0,0E0,0E0,0E0,0E0,0E0],"parents":[2147483647,0,0,1,1,2,2,3,3,4,4,5,5,6,6],"right_children":[2,4,6,8,10,12,14,-1,-1,-1,-1,-1,-1,-1,-1],"split_conditions":[3.3353054E1,3.1139233E1,3.1139233E1,4.0136E4,2.9138E3,6.372194E0,4.1109245E1,-9.695939E-3,-4.1974282E-1,1.5477245E-1,8.193976E-1,-1.7894527E-1,-6.883685E-1,-6.1556328E-2,5.268515E-3],"split_indices":[28,38,38,36,23,39,38,0,0,0,0,0,0,0,0],"split_type":[0,0,0,0,0,0,0,0,0,0,0,0,0,0,0],"sum_hessian":[1.0787E4,8.86E2,9.901E3,5.51E2,3.35E2,8.1E1,9.82E3,5.41E2,1E1,3.22E2,1.3E1,4.1E1,4E1,1.345E3,8.475E3],"tree_param":{"num_deleted":"0","num_feature":"44","num_nodes":"15","size_leaf_vector":"1"}},{"base_weights":[-3.9393038E-2,-1.07936084E-1,1.833141E0,-3.0935105E-2,-4.610337E0,7.1862097E0,5.625676E-1,-1.3302142E-2,2.6341325E-2,-2.0272663E-1,-4.7687727E-1,3.06419E-1,1.195084E0,-1.625528E-2,1.3802344E-1],"categories":[],"categories_nodes":[],"categories_segments":[],"categories_sizes":[],"default_left":[0,0,0,0,0,0,0,0,0,0,0,0,0,0,0],"id":44,"left_children":[1,3,5,7,9,11,13,-1,-1,-1,-1,-1,-1,-1,-1],"loss_changes":[1.3848289E3,3.608199E3,2.587316E3,1.3421661E3,4.405786E2,1.1443167E3,6.0376196E2,0E0,0E0,0E0,0E0,0E0,0E0,0E0,0E0],"parents":[2147483647,0,0,1,1,2,2,3,3,4,4,5,5,6,6],"right_children":[2,4,6,8,10,12,14,-1,-1,-1,-1,-1,-1,-1,-1],"split_conditions":[7.565349E1,7.475613E1,7.382595E1,5.7757275E1,8.053093E1,8.2052574E1,1.3193E4,-1.3302142E-2,2.6341325E-2,-2.0272663E-1,-4.7687727E-1,3.06419E-1,1.195084E0,-1.625528E-2,1.3802344E-1],"split_indices":[38,28,28,38,28,38,36,0,0,0,0,0,0,0,0],"split_type":[0,0,0,0,0,0,0,0,0,0,0,0,0,0,0],"sum_hessian":[1.0787E4,1.0407E4,3.8E2,1.0233E4,1.74E2,7.2E1,3.08E2,7.199E3,3.034E3,1.58E2,1.6E1,6.9E1,3E0,2.2E2,8.8E1],"tree_param":{"num_deleted":"0","num_feature":"44","num_nodes":"15","size_leaf_vector":"1"}},{"base_weights":[-3.7334714E-2,2.1086831E-1,-5.737274E-1,-4.498907E-2,3.2258067E0,-3.17761E0,6.569386E-3,8.372161E-3,-6.451921E-2,1.4541258E-1,7.0891577E-1,-1.449941E-1,-5.310098E-1,-2.335234E-2,5.7110157E-2],"categories":[],"categories_nodes":[],"categories_segments":[],"categories_sizes":[],"default_left":[0,0,0,0,0,0,0,0,0,0,0,0,0,0,0],"id":45,"left_children":[1,3,5,7,9,11,13,-1,-1,-1,-1,-1,-1,-1,-1],"loss_changes":[1.4363738E3,5.689949E3,5.1571475E3,1.7992386E3,1.9655859E3,1.2548857E3,1.5022233E3,0E0,0E0,0E0,0E0,0E0,0E0,0E0,0E0],"parents":[2147483647,0,0,1,1,2,2,3,3,4,4,5,5,6,6],"right_children":[2,4,6,8,10,12,14,-1,-1,-1,-1,-1,-1,-1,-1],"split_conditions":[5.8443645E1,5.7757275E1,5.9585846E1,5.3592228E1,3.3743896E0,1.0373532E1,9.568E3,8.372161E-3,-6.451921E-2,1.4541258E-1,7.0891577E-1,-1.449941E-1,-5.310098E-1,-2.335234E-2,5.7110157E-2],"split_indices":[28,38,38,28,42,30,36,0,0,0,0,0,0,0,0],"split_type":[0,0,0,0,0,0,0,0,0,0,0,0,0,0,0],"sum_hessian":[1.0787E4,7.375E3,3.412E3,6.799E3,5.76E2,6.21E2,2.791E3,5.809E3,9.9E2,5.61E2,1.5E1,6E2,2.1E1,1.97E3,8.21E2],"tree_param":{"num_deleted":"0","num_feature":"44","num_nodes":"15","size_leaf_vector":"1"}},{"base_weights":[-3.5453524E-2,1.6390972E-1,-6.7203844E-1,2.6202915E-2,4.6820583E0,-2.8835025E0,7.389002E-2,-1.2981037E-2,4.1472316E-2,1.5958773E-1,4.587145E-1,-1.009408E-1,-2.4143396E-1,-4.727438E-3,1.8384187E-1],"categories":[],"categories_nodes":[],"categories_segments":[],"categories_sizes":[],"default_left":[0,0,0,0,0,0,0,0,0,0,0,0,0,0,0],"id":46,"left_children":[1,3,5,7,9,11,13,-1,-1,-1,-1,-1,-1,-1,-1],"loss_changes":[1.3692327E3,5.1117065E3,4.244618E3,1.8309337E3,1.5975518E3,1.0818491E3,1.168584E3,0E0,0E0,0E0,0E0,0E0,0E0,0E0,0E0],"parents":[2147483647,0,0,1,1,2,2,3,3,4,4,5,5,6,6],"right_children":[2,4,6,8,10,12,14,-1,-1,-1,-1,-1,-1,-1,-1],"split_conditions":[6.1761208E1,6.3337673E1,6.3504856E1,5.3568462E1,8.373292E0,7.622359E0,2.9151E4,-1.2981037E-2,4.1472316E-2,1.5958773E-1,4.587145E-1,-1.009408E-1,-2.4143396E-1,-4.727438E-3,1.8384187E-1],"split_indices":[28,38,38,38,39,39,36,0,0,0,0,0,0,0,0],"split_type":[0,0,0,0,0,0,0,0,0,0,0,0,0,0,0],"sum_hessian":[1.0787E4,8.215E3,2.572E3,7.973E3,2.42E2,6.48E2,1.924E3,5.881E3,2.092E3,1.83E2,5.9E1,4.5E2,1.98E2,1.839E3,8.5E1],"tree_param":{"num_deleted":"0","num_feature":"44","num_nodes":"15","size_leaf_vector":"1"}},{"base_weights":[-3.363603E-2,8.908691E-1,-1.705816E-1,-9.799703E-2,3.343502E0,-4.6016903E0,-3.499107E-2,2.508609E-2,-7.984745E-2,4.9620247E-1,1.3525397E-1,-1.9138876E-1,-8.983709E-1,3.477611E-2,-1.24336835E-2],"categories":[],"categories_nodes":[],"categories_segments":[],"categories_sizes":[],"default_left":[0,0,0,0,0,0,0,0,0,0,0,0,0,0,0],"id":47,"left_children":[1,3,5,7,9,11,13,-1,-1,-1,-1,-1,-1,-1,-1],"loss_changes":[1.365987E3,3.3763804E3,5.6457104E3,8.934583E2,1.6536226E3,2.817185E3,1.4236304E3,0E0,0E0,0E0,0E0,0E0,0E0,0E0,0E0],"parents":[2147483647,0,0,1,1,2,2,3,3,4,4,5,5,6,6],"right_children":[2,4,6,8,10,12,14,-1,-1,-1,-1,-1,-1,-1,-1],"split_conditions":[3.66595E1,3.546994E1,3.6463066E1,1.2109E4,-1.1530616E1,3.0403E3,4.649372E1,2.508609E-2,-7.984745E-2,4.9620247E-1,1.3525397E-1,-1.9138876E-1,-8.983709E-1,3.477611E-2,-1.24336835E-2],"split_indices":[28,38,38,36,30,25,28,0,0,0,0,0,0,0,0],"split_type":[0,0,0,0,0,0,0,0,0,0,0,0,0,0,0],"sum_hessian":[1.0787E4,1.391E3,9.396E3,9.92E2,3.99E2,2.78E2,9.118E3,7.09E2,2.83E2,3.4E1,3.65E2,2.64E2,1.4E1,2.063E3,7.055E3],"tree_param":{"num_deleted":"0","num_feature":"44","num_nodes":"15","size_leaf_vector":"1"}},{"base_weights":[-3.1999715E-2,2.2691959E-1,-4.8551303E-1,-8.599602E-2,2.627628E0,-3.3137023E0,-4.9239725E-2,1.4521665E-2,-4.5151036E-2,8.6289495E-2,2.489676E-1,-1.141145E-1,-2.8660738E-1,-2.6323885E-2,3.8615312E-2],"categories":[],"categories_nodes":[],"categories_segments":[],"categories_sizes":[],"default_left":[0,0,0,0,0,0,0,0,0,0,0,0,0,0,0],"id":48,"left_children":[1,3,5,7,9,11,13,-1,-1,-1,-1,-1,-1,-1,-1],"loss_changes":[1.2668733E3,5.159599E3,4.8378154E3,1.8692559E3,1.6711396E3,1.2939907E3,1.3326704E3,0E0,0E0,0E0,0E0,0E0,0E0,0E0,0E0],"parents":[2147483647,0,0,1,1,2,2,3,3,4,4,5,5,6,6],"right_children":[2,4,6,8,10,12,14,-1,-1,-1,-1,-1,-1,-1,-1],"split_conditions":[5.655469E1,5.5057007E1,5.673599E1,4.8153E1,7.4293237E0,7.4726677E0,6.826004E1,1.4521665E-2,-4.5151036E-2,8.6289495E-2,2.489676E-1,-1.141145E-1,-2.8660738E-1,-2.6323885E-2,3.8615312E-2],"split_indices":[28,38,38,28,39,39,38,0,0,0,0,0,0,0,0],"split_type":[0,0,0,0,0,0,0,0,0,0,0,0,0,0,0],"sum_hessian":[1.0787E4,6.867E3,3.92E3,6.076E3,7.91E2,5.23E2,3.397E3,4.16E3,1.916E3,5.73E2,2.18E2,3.68E2,1.55E2,2.149E3,1.248E3],"tree_param":{"num_deleted":"0","num_feature":"44","num_nodes":"15","size_leaf_vector":"1"}},{"base_weights":[-3.0407496E-2,-5.133723E-1,2.1418113E-1,-1.5434876E-2,-3.2694955E0,2.0581243E0,-1.2688462E-1,2.5550162E-3,-4.4204012E-1,-9.2104554E-2,-2.776368E-1,5.8611657E-2,1.7808679E-1,-7.066854E-2,7.488838E-3],"categories":[],"categories_nodes":[],"categories_segments":[],"categories_sizes":[],"default_left":[0,0,0,0,0,0,0,0,0,0,0,0,0,0,0],"id":49,"left_children":[1,3,5,7,9,11,13,-1,-1,-1,-1,-1,-1,-1,-1],"loss_changes":[1.2744716E3,4.9775605E3,4.504485E3,1.8049099E3,1.7985757E3,1.4850405E3,2.1517544E3,0E0,0E0,0E0,0E0,0E0,0E0,0E0,0E0],"parents":[2147483647,0,0,1,1,2,2,3,3,4,4,5,5,6,6],"right_children":[2,4,6,8,10,12,14,-1,-1,-1,-1,-1,-1,-1,-1],"split_conditions":[4.621584E1,4.6061596E1,4.9094395E1,4.5214E4,6.712326E0,6.771051E0,5.2641006E1,2.5550162E-3,-4.4204012E-1,-9.2104554E-2,-2.776368E-1,5.8611657E-2,1.7808679E-1,-7.066854E-2,7.488838E-3],"split_indices":[38,28,28,36,39,39,38,0,0,0,0,0,0,0,0],"split_type":[0,0,0,0,0,0,0,0,0,0,0,0,0,0,0],"sum_hessian":[1.0787E4,3.626E3,7.161E3,3.072E3,5.54E2,1.117E3,6.044E3,3.05E3,2.2E1,3.42E2,2.12E2,7.04E2,4.13E2,1.069E3,4.975E3],"tree_param":{"num_deleted":"0","num_feature":"44","num_nodes":"15","size_leaf_vector":"1"}},{"base_weights":[-2.8946044E-2,1.3111706E-1,-7.777734E-1,-3.0041812E-3,4.380109E0,-3.1580458E0,4.710689E-2,-2.1894928E-2,1.9026008E-2,1.8876465E-1,5.906012E-1,-1.3784193E-1,-4.4008198E-1,-3.6615405E-2,4.3186497E-2],"categories":[],"categories_nodes":[],"categories_segments":[],"categories_sizes":[],"default_left":[0,0,0,0,0,0,0,0,0,0,0,0,0,0,0],"id":50,"left_children":[1,3,5,7,9,11,13,-1,-1,-1,-1,-1,-1,-1,-1],"loss_changes":[1.2931477E3,5.065677E3,3.7306846E3,1.437585E3,1.1780293E3,1.0829541E3,8.9935394E2,0E0,0E0,0E0,0E0,0E0,0E0,0E0,0E0],"parents":[2147483647,0,0,1,1,2,2,3,3,4,4,5,5,6,6],"right_children":[2,4,6,8,10,12,14,-1,-1,-1,-1,-1,-1,-1,-1],"split_conditions":[6.474197E1,6.541034E1,6.6275696E1,4.7637737E1,3.0545E3,1.1863037E1,7.233888E1,-2.1894928E-2,1.9026008E-2,1.8876465E-1,5.906012E-1,-1.3784193E-1,-4.4008198E-1,-3.6615405E-2,4.3186497E-2],"split_indices":[28,38,38,38,33,30,38,0,0,0,0,0,0,0,0],"split_type":[0,0,0,0,0,0,0,0,0,0,0,0,0,0,0],"sum_hessian":[1.0787E4,8.888E3,1.899E3,8.617E3,2.71E2,4.88E2,1.411E3,4.038E3,4.579E3,2.52E2,1.9E1,4.57E2,3.1E1,7.22E2,6.89E2],"tree_param":{"num_deleted":"0","num_feature":"44","num_nodes":"15","size_leaf_vector":"1"}},{"base_weights":[-2.7479729E-2,1.1424043E0,-1.2676124E-1,-2.7239418E-1,3.682448E0,-7.4771814E0,-5.8875393E-2,4.944594E-2,-5.873732E-2,1.6217509E-1,9.704141E-1,-2.4186437E-1,-8.023241E-1,-5.1682677E-2,5.792031E-3],"categories":[],"categories_nodes":[],"categories_segments":[],"categories_sizes":[],"default_left":[0,0,0,0,0,0,0,0,0,0,0,0,0,0,0],"id":51,"left_children":[1,3,5,7,9,11,13,-1,-1,-1,-1,-1,-1,-1,-1],"loss_changes":[1.2531478E3,3.0340437E3,4.9620107E3,6.1917633E2,2.0216929E3,1.9809844E3,1.6785182E3,0E0,0E0,0E0,0E0,0E0,0E0,0E0,0E0],"parents":[2147483647,0,0,1,1,2,2,3,3,4,4,5,5,6,6],"right_children":[2,4,6,8,10,12,14,-1,-1,-1,-1,-1,-1,-1,-1],"split_conditions":[3.293661E1,3.1139233E1,3.1139233E1,2.5830654E1,3.0487E3,9.929201E0,4.1676662E1,4.944594E-2,-5.873732E-2,1.6217509E-1,9.704141E-1,-2.4186437E-1,-8.023241E-1,-5.1682677E-2,5.792031E-3],"split_indices":[28,38,38,28,3,39,38,0,0,0,0,0,0,0,0],"split_type":[0,0,0,0,0,0,0,0,0,0,0,0,0,0,0],"sum_hessian":[1.0787E4,8.43E2,9.944E3,5.42E2,3.01E2,9E1,9.854E3,2.26E2,3.16E2,2.94E2,7E0,7E1,2E1,1.497E3,8.357E3],"tree_param":{"num_deleted":"0","num_feature":"44","num_nodes":"15","size_leaf_vector":"1"}},{"base_weights":[-2.6102673E-2,2.8121087E-1,-4.1460857E-1,-2.7158497E-2,2.8046162E0,-2.2861242E0,7.680507E-2,2.2223262E-2,-3.138792E-2,7.221545E-2,2.1826744E-1,-2.8775364E-1,-9.0532385E-2,6.5743946E-2,-1.522321E-2],"categories":[],"categories_nodes":[],"categories_segments":[],"categories_sizes":[],"default_left":[0,0,0,0,0,0,0,0,0,0,0,0,0,0,0],"id":52,"left_children":[1,3,5,7,9,11,13,-1,-1,-1,-1,-1,-1,-1,-1],"loss_changes":[1.2881296E3,4.6875967E3,4.38249E3,1.5210868E3,1.3864331E3,1.6241382E3,1.7823491E3,0E0,0E0,0E0,0E0,0E0,0E0,0E0,0E0],"parents":[2147483647,0,0,1,1,2,2,3,3,4,4,5,5,6,6],"right_children":[2,4,6,8,10,12,14,-1,-1,-1,-1,-1,-1,-1,-1],"split_conditions":[5.3833233E1,5.3159267E1,5.6322815E1,4.423646E1,5.9897785E0,4.853739E1,5.977329E1,2.2223262E-2,-3.138792E-2,7.221545E-2,2.1826744E-1,-2.8775364E-1,-9.0532385E-2,6.5743946E-2,-1.522321E-2],"split_indices":[28,38,38,28,39,38,28,0,0,0,0,0,0,0,0],"split_type":[0,0,0,0,0,0,0,0,0,0,0,0,0,0,0],"sum_hessian":[1.0787E4,6.023E3,4.764E3,5.368E3,6.55E2,9.9E2,3.774E3,3.007E3,2.361E3,3.51E2,3.04E2,1.18E2,8.72E2,8.88E2,2.886E3],"tree_param":{"num_deleted":"0","num_feature":"44","num_nodes":"15","size_leaf_vector":"1"}},{"base_weights":[-2.4801835E-2,1.03376605E-1,-8.893674E-1,-3.9299587E-3,5.062685E0,-3.2903316E0,5.7501864E-2,-2.5634667E-2,1.3133709E-2,2.1623567E-1,7.644345E-1,-1.0409204E-1,-2.522369E-1,-4.4428934E-3,2.884543E-1],"categories":[],"categories_nodes":[],"categories_segments":[],"categories_sizes":[],"default_left":[0,0,0,0,0,0,0,0,0,0,0,0,0,0,0],"id":53,"left_children":[1,3,5,7,9,11,13,-1,-1,-1,-1,-1,-1,-1,-1],"loss_changes":[1.1956038E3,5.0002544E3,3.1670342E3,1.247737E3,1.4356353E3,8.248506E2,8.3645856E2,0E0,0E0,0E0,0E0,0E0,0E0,0E0,0E0],"parents":[2147483647,0,0,1,1,2,2,3,3,4,4,5,5,6,6],"right_children":[2,4,6,8,10,12,14,-1,-1,-1,-1,-1,-1,-1,-1],"split_conditions":[6.757323E1,6.8500626E1,6.885214E1,4.4635696E1,3.0545E3,6.7420735E0,4.0136E4,-2.5634667E-2,1.3133709E-2,2.1623567E-1,7.644345E-1,-1.0409204E-1,-2.522369E-1,-4.4428934E-3,2.884543E-1],"split_indices":[28,38,38,38,33,39,36,0,0,0,0,0,0,0,0],"split_type":[0,0,0,0,0,0,0,0,0,0,0,0,0,0,0],"sum_hessian":[1.0787E4,9.395E3,1.392E3,9.197E3,1.98E2,3.93E2,9.99E2,3.162E3,6.035E3,1.86E2,1.2E1,2.34E2,1.59E2,9.75E2,2.4E1],"tree_param":{"num_deleted":"0","num_feature":"44","num_nodes":"15","size_leaf_vector":"1"}},{"base_weights":[-2.347871E-2,7.454713E-1,-1.7032275E-1,-3.4848136E-1,2.3479383E0,-3.6737568E0,-1.8611366E-2,-1.2345758E-2,-8.8121825E-1,8.363285E-1,1.0895252E-1,-9.719565E-2,-3.2879472E-1,2.0809641E-2,-1.8906973E-2],"categories":[],"categories_nodes":[],"categories_segments":[],"categories_sizes":[],"default_left":[0,0,0,0,0,0,0,0,0,0,0,0,0,0,0],"id":54,"left_children":[1,3,5,7,9,11,13,-1,-1,-1,-1,-1,-1,-1,-1],"loss_changes":[1.2182617E3,3.033548E3,4.8148877E3,1.8011787E3,1.668271E3,1.8748296E3,1.3576779E3,0E0,0E0,0E0,0E0,0E0,0E0,0E0,0E0],"parents":[2147483647,0,0,1,1,2,2,3,3,4,4,5,5,6,6],"right_children":[2,4,6,8,10,12,14,-1,-1,-1,-1,-1,-1,-1,-1],"split_conditions":[3.862356E1,3.522965E1,3.8789814E1,3.3218E3,2.412884E1,7.0618997E0,5.3833233E1,-1.2345758E-2,-8.8121825E-1,8.363285E-1,1.0895252E-1,-9.719565E-2,-3.2879472E-1,2.0809641E-2,-1.8906973E-2],"split_indices":[28,38,38,24,28,39,28,0,0,0,0,0,0,0,0],"split_type":[0,0,0,0,0,0,0,0,0,0,0,0,0,0,0],"sum_hessian":[1.0787E4,1.729E3,9.058E3,1.028E3,7.01E2,3.75E2,8.683E3,1.023E3,5E0,7E0,6.94E2,2.36E2,1.39E2,3.93E3,4.753E3],"tree_param":{"num_deleted":"0","num_feature":"44","num_nodes":"15","size_leaf_vector":"1"}},{"base_weights":[-2.2339286E-2,5.5371726E-1,-2.0653372E-1,-1.464344E-1,2.4795954E0,-3.9111967E0,-4.7243245E-2,2.6431872E-2,-5.5654086E-2,1.09716654E-1,5.193701E-1,-1.2254405E-1,-3.9458603E-1,-4.0511638E-2,9.629896E-3],"categories":[],"categories_nodes":[],"categories_segments":[],"categories_sizes":[],"default_left":[0,0,0,0,0,0,0,0,0,0,0,0,0,0,0],"id":55,"left_children":[1,3,5,7,9,11,13,-1,-1,-1,-1,-1,-1,-1,-1],"loss_changes":[1.1447903E3,3.5250984E3,4.824026E3,1.2521915E3,1.5495005E3,1.9395791E3,1.434664E3,0E0,0E0,0E0,0E0,0E0,0E0,0E0,0E0],"parents":[2147483647,0,0,1,1,2,2,3,3,4,4,5,5,6,6],"right_children":[2,4,6,8,10,12,14,-1,-1,-1,-1,-1,-1,-1,-1],"split_conditions":[4.2535053E1,4.058898E1,4.1676662E1,3.573993E1,3.0538E3,7.981292E0,4.987442E1,2.6431872E-2,-5.5654086E-2,1.09716654E-1,5.193701E-1,-1.2254405E-1,-3.9458603E-1,-4.0511638E-2,9.629896E-3],"split_indices":[28,38,38,28,1,39,38,0,0,0,0,0,0,0,0],"split_type":[0,0,0,0,0,0,0,0,0,0,0,0,0,0,0],"sum_hessian":[1.0787E4,2.613E3,8.174E3,1.917E3,6.96E2,3.36E2,7.838E3,1.129E3,7.88E2,6.73E2,2.3E1,2.47E2,8.9E1,1.874E3,5.964E3],"tree_param":{"num_deleted":"0","num_feature":"44","num_nodes":"15","size_leaf_vector":"1"}},{"base_weights":[-2.1217516E-2,-1.5583289E0,4.8017085E-2,-6.9540304E-1,-1.0232668E1,3.8236248E0,-4.0689006E-2,3.218706E-2,-1.0124977E-1,-2.4390626E-1,-7.67746E-1,5.406744E-1,1.5647832E-1,-6.5115206E-2,3.1999268E-3],"categories":[],"categories_nodes":[],"categories_segments":[],"categories_sizes":[],"default_left":[0,0,0,0,0,0,0,0,0,0,0,0,0,0,0],"id":56,"left_children":[1,3,5,7,9,11,13,-1,-1,-1,-1,-1,-1,-1,-1],"loss_changes":[1.1481478E3,3.473554E3,3.4578635E3,7.562424E2,1.077044E3,1.1159346E3,1.3324598E3,0E0,0E0,0E0,0E0,0E0,0E0,0E0,0E0],"parents":[2147483647,0,0,1,1,2,2,3,3,4,4,5,5,6,6],"right_children":[2,4,6,8,10,12,14,-1,-1,-1,-1,-1,-1,-1,-1],"split_conditions":[2.9114902E1,3.3353054E1,3.1139233E1,2.5830654E1,7.0934777E0,-5.565093E0,3.696339E1,3.218706E-2,-1.0124977E-1,-2.4390626E-1,-7.67746E-1,5.406744E-1,1.5647832E-1,-6.5115206E-2,3.1999268E-3],"split_indices":[38,28,28,28,39,32,38,0,0,0,0,0,0,0,0],"split_type":[0,0,0,0,0,0,0,0,0,0,0,0,0,0,0],"sum_hessian":[1.0787E4,4.64E2,1.0323E4,4.23E2,4.1E1,2.36E2,1.0087E4,2.11E2,2.12E2,2.1E1,2E1,2E1,2.16E2,7.72E2,9.315E3],"tree_param":{"num_deleted":"0","num_feature":"44","num_nodes":"15","size_leaf_vector":"1"}},{"base_weights":[-2.0197928E-2,3.3407423E-1,-3.2766783E-1,1.0344617E-2,2.7844408E0,-2.922255E0,-3.693107E-2,2.2750288E-2,-2.9060844E-2,6.337794E-2,2.2217873E-1,-6.543102E-2,-2.142924E-1,3.1155987E-2,-1.9368278E-2],"categories":[],"categories_nodes":[],"categories_segments":[],"categories_sizes":[],"default_left":[0,0,0,0,0,0,0,0,0,0,0,0,0,0,0],"id":57,"left_children":[1,3,5,7,9,11,13,-1,-1,-1,-1,-1,-1,-1,-1],"loss_changes":[1.175225E3,3.9765647E3,4.3569707E3,1.1652881E3,1.4666426E3,1.2749902E3,1.2018687E3,0E0,0E0,0E0,0E0,0E0,0E0,0E0,0E0],"parents":[2147483647,0,0,1,1,2,2,3,3,4,4,5,5,6,6],"right_children":[2,4,6,8,10,12,14,-1,-1,-1,-1,-1,-1,-1,-1],"split_conditions":[5.0698765E1,5.0541813E1,5.0822388E1,4.236779E1,5.964052E0,5.6230817E0,5.824282E1,2.2750288E-2,-2.9060844E-2,6.337794E-2,2.2217873E-1,-6.543102E-2,-2.142924E-1,3.1155987E-2,-1.9368278E-2],"split_indices":[28,38,38,28,39,39,28,0,0,0,0,0,0,0,0],"split_type":[0,0,0,0,0,0,0,0,0,0,0,0,0,0,0],"sum_hessian":[1.0787E4,5.012E3,5.775E3,4.428E3,5.84E2,5.81E2,5.194E3,2.528E3,1.9E3,3.06E2,2.78E2,2.67E2,3.14E2,1.801E3,3.393E3],"tree_param":{"num_deleted":"0","num_feature":"44","num_nodes":"15","size_leaf_vector":"1"}},{"base_weights":[-1.9186988E-2,2.638841E-1,-3.7704659E-1,-1.3928154E-2,2.5372226E0,-2.1383572E0,8.5426494E-2,1.2850977E-2,-4.5301504E-2,6.3672096E-2,1.9937156E-1,-7.1601175E-2,-2.009613E-1,6.110543E-2,-1.3231202E-2],"categories":[],"categories_nodes":[],"categories_segments":[],"categories_sizes":[],"default_left":[0,0,0,0,0,0,0,0,0,0,0,0,0,0,0],"id":58,"left_children":[1,3,5,7,9,11,13,-1,-1,-1,-1,-1,-1,-1,-1],"loss_changes":[1.0929207E3,3.8045603E3,3.8815552E3,1.2979897E3,1.1972031E3,1.3108086E3,1.5023815E3,0E0,0E0,0E0,0E0,0E0,0E0,0E0,0E0],"parents":[2147483647,0,0,1,1,2,2,3,3,4,4,5,5,6,6],"right_children":[2,4,6,8,10,12,14,-1,-1,-1,-1,-1,-1,-1,-1],"split_conditions":[5.3833233E1,5.3159267E1,5.6322815E1,4.8153E1,5.9897785E0,7.4726677E0,5.977329E1,1.2850977E-2,-4.5301504E-2,6.3672096E-2,1.9937156E-1,-7.1601175E-2,-2.009613E-1,6.110543E-2,-1.3231202E-2],"split_indices":[28,38,38,28,39,39,28,0,0,0,0,0,0,0,0],"split_type":[0,0,0,0,0,0,0,0,0,0,0,0,0,0,0],"sum_hessian":[1.0787E4,6.023E3,4.764E3,5.368E3,6.55E2,9.9E2,3.774E3,4.118E3,1.25E3,3.51E2,3.04E2,7.21E2,2.69E2,8.88E2,2.886E3],"tree_param":{"num_deleted":"0","num_feature":"44","num_nodes":"15","size_leaf_vector":"1"}},{"base_weights":[-1.8227091E-2,-1.5163268E0,4.9250107E-2,-6.963131E-1,-9.758458E0,3.3427598E0,-4.0875707E-2,-6.4753764E-3,-1.8844208E-1,-2.3227333E-1,-7.325118E-1,1.4294611E-1,6.8543106E-1,-6.0715355E-2,3.7197396E-3],"categories":[],"categories_nodes":[],"categories_segments":[],"categories_sizes":[],"default_left":[0,0,0,0,0,0,0,0,0,0,0,0,0,0,0],"id":59,"left_children":[1,3,5,7,9,11,13,-1,-1,-1,-1,-1,-1,-1,-1],"loss_changes":[1.0906074E3,3.1359824E3,3.064612E3,7.37919E2,9.8243066E2,1.340041E3,1.3594735E3,0E0,0E0,0E0,0E0,0E0,0E0,0E0,0E0],"parents":[2147483647,0,0,1,1,2,2,3,3,4,4,5,5,6,6],"right_children":[2,4,6,8,10,12,14,-1,-1,-1,-1,-1,-1,-1,-1],"split_conditions":[2.9114902E1,3.3353054E1,3.1464073E1,2.6266E3,7.0934777E0,3.0545E3,3.7997047E1,-6.4753764E-3,-1.8844208E-1,-2.3227333E-1,-7.325118E-1,1.4294611E-1,6.8543106E-1,-6.0715355E-2,3.7197396E-3],"split_indices":[38,28,28,2,39,33,38,0,0,0,0,0,0,0,0],"split_type":[0,0,0,0,0,0,0,0,0,0,0,0,0,0,0],"sum_hessian":[1.0787E4,4.64E2,1.0323E4,4.23E2,4.1E1,2.74E2,1.0049E4,3.58E2,6.5E1,2.1E1,2E1,2.63E2,1.1E1,8.98E2,9.151E3],"tree_param":{"num_deleted":"0","num_feature":"44","num_nodes":"15","size_leaf_vector":"1"}},{"base_weights":[-1.7351732E-2,-4.5934267E-2,3.498828E0,2.7488109E-2,-2.6005847E0,1.8761822E1,2.1366084E0,-1.3689006E-3,1.9684447E-1,-2.3486216E-1,-4.4621743E-2,1.0433029E0,1.5341032E-1,3.5346484E-1,7.109188E-2],"categories":[],"categories_nodes":[],"categories_segments":[],"categories_sizes":[],"default_left":[0,0,0,0,0,0,0,0,0,0,0,0,0,0,0],"id":60,"left_children":[1,3,5,7,9,11,13,-1,-1,-1,-1,-1,-1,-1,-1],"loss_changes":[1.0843691E3,2.0074294E3,1.7687781E3,2.2317E3,1.0666488E3,1.6714014E2,2.755337E2,0E0,0E0,0E0,0E0,0E0,0E0,0E0,0E0],"parents":[2147483647,0,0,1,1,2,2,3,3,4,4,5,5,6,6],"right_children":[2,4,6,8,10,12,14,-1,-1,-1,-1,-1,-1,-1,-1],"split_conditions":[8.2052574E1,7.565349E1,7.621596E1,7.51663E1,7.621596E1,1.5999756E0,8.053093E1,-1.3689006E-3,1.9684447E-1,-2.3486216E-1,-4.4621743E-2,1.0433029E0,1.5341032E-1,3.5346484E-1,7.109188E-2],"split_indices":[38,28,28,38,38,0,28,0,0,0,0,0,0,0,0],"split_type":[0,0,0,0,0,0,0,0,0,0,0,0,0,0,0],"sum_hessian":[1.0787E4,1.0701E4,8.6E1,1.0403E4,2.98E2,6E0,8E1,1.026E4,1.43E2,1.33E2,1.65E2,5E0,1E0,9E0,7.1E1],"tree_param":{"num_deleted":"0","num_feature":"44","num_nodes":"15","size_leaf_vector":"1"}},{"base_weights":[-1.6341643E-2,2.2743525E-1,-4.0954527E-1,4.5049418E-2,3.2414825E0,-2.1273293E0,1.2572174E-1,-2.0422474E-2,2.6096715E-2,7.263973E-2,2.6423538E-1,-8.813473E-2,-2.6092315E-1,5.3281795E-2,-1.8167416E-2],"categories":[],"categories_nodes":[],"categories_segments":[],"categories_sizes":[],"default_left":[0,0,0,0,0,0,0,0,0,0,0,0,0,0,0],"id":61,"left_children":[1,3,5,7,9,11,13,-1,-1,-1,-1,-1,-1,-1,-1],"loss_changes":[1.0341656E3,3.660986E3,3.7967722E3,1.3585846E3,1.3811052E3,1.096521E3,1.4479316E3,0E0,0E0,0E0,0E0,0E0,0E0,0E0,0E0],"parents":[2147483647,0,0,1,1,2,2,3,3,4,4,5,5,6,6],"right_children":[2,4,6,8,10,12,14,-1,-1,-1,-1,-1,-1,-1,-1],"split_conditions":[5.5876537E1,5.690281E1,5.8596416E1,4.492684E1,5.9897785E0,6.3900253E1,6.333991E1,-2.0422474E-2,2.6096715E-2,7.263973E-2,2.6423538E-1,-8.813473E-2,-2.6092315E-1,5.3281795E-2,-1.8167416E-2],"split_indices":[28,38,38,38,39,28,28,0,0,0,0,0,0,0,0],"split_type":[0,0,0,0,0,0,0,0,0,0,0,0,0,0,0],"sum_hessian":[1.0787E4,6.659E3,4.128E3,6.28E3,3.79E2,9.8E2,3.148E3,3.219E3,3.061E3,2.03E2,1.76E2,8.78E2,1.02E2,1.077E3,2.071E3],"tree_param":{"num_deleted":"0","num_feature":"44","num_nodes":"15","size_leaf_vector":"1"}},{"base_weights":[-1.5521909E-2,-9.847491E-2,1.1480368E0,1.6265627E-2,-3.2206202E0,5.7458267E0,3.0674955E-1,-4.6643624E-3,6.0001463E-2,-1.2032805E-1,-2.8044617E-1,6.075695E-1,2.3480201E-1,-5.292801E-3,1.4233665E-1],"categories":[],"categories_nodes":[],"categories_segments":[],"categories_sizes":[],"default_left":[0,0,0,0,0,0,0,0,0,0,0,0,0,0,0],"id":62,"left_children":[1,3,5,7,9,11,13,-1,-1,-1,-1,-1,-1,-1,-1],"loss_changes":[1.0413783E3,3.6078533E3,2.7755063E3,1.2599989E3,6.805886E2,6.893528E2,6.374922E2,0E0,0E0,0E0,0E0,0E0,0E0,0E0,0E0],"parents":[2147483647,0,0,1,1,2,2,3,3,4,4,5,5,6,6],"right_children":[2,4,6,8,10,12,14,-1,-1,-1,-1,-1,-1,-1,-1],"split_conditions":[7.233888E1,7.021639E1,7.0591866E1,6.519181E1,8.819257E0,1.474E3,8.2052574E1,-4.6643624E-3,6.0001463E-2,-1.2032805E-1,-2.8044617E-1,6.075695E-1,2.3480201E-1,-5.292801E-3,1.4233665E-1],"split_indices":[38,28,28,38,39,4,38,0,0,0,0,0,0,0,0],"split_type":[0,0,0,0,0,0,0,0,0,0,0,0,0,0,0],"sum_hessian":[1.0787E4,1.007E4,7.17E2,9.714E3,3.56E2,1.1E2,6.07E2,8.892E3,8.22E2,2.67E2,8.9E1,1.4E1,9.6E1,5.23E2,8.4E1],"tree_param":{"num_deleted":"0","num_feature":"44","num_nodes":"15","size_leaf_vector":"1"}},{"base_weights":[-1.4687022E-2,4.443245E-1,-2.2735061E-1,-1.3106106E-1,2.1387405E0,-2.5550468E0,-4.0189727E-4,2.1708665E-2,-5.5920344E-2,6.506034E-1,9.853585E-2,-6.995612E-2,-2.3424557E-1,3.2557514E-2,-1.4021531E-2],"categories":[],"categories_nodes":[],"categories_segments":[],"categories_sizes":[],"default_left":[0,0,0,0,0,0,0,0,0,0,0,0,0,0,0],"id":63,"left_children":[1,3,5,7,9,11,13,-1,-1,-1,-1,-1,-1,-1,-1],"loss_changes":[1.053172E3,3.3306838E3,3.8949163E3,1.4241522E3,1.5565159E3,1.6060308E3,1.2260865E3,0E0,0E0,0E0,0E0,0E0,0E0,0E0,0E0],"parents":[2147483647,0,0,1,1,2,2,3,3,4,4,5,5,6,6],"right_children":[2,4,6,8,10,12,14,-1,-1,-1,-1,-1,-1,-1,-1],"split_conditions":[4.551166E1,4.3409943E1,4.621584E1,3.862356E1,-1.6800049E1,7.0934777E0,5.3833233E1,2.1708665E-2,-5.5920344E-2,6.506034E-1,9.853585E-2,-6.995612E-2,-2.3424557E-1,3.2557514E-2,-1.4021531E-2],"split_indices":[28,38,38,28,22,39,28,0,0,0,0,0,0,0,0],"split_type":[0,0,0,0,0,0,0,0,0,0,0,0,0,0,0],"sum_hessian":[1.0787E4,3.415E3,7.372E3,2.55E3,8.65E2,6.54E2,6.718E3,1.622E3,9.28E2,1.2E1,8.53E2,4.25E2,2.29E2,2.019E3,4.699E3],"tree_param":{"num_deleted":"0","num_feature":"44","num_nodes":"15","size_leaf_vector":"1"}},{"base_weights":[-1.39128715E-2,-1.6992954E0,4.0596094E-2,-7.6697296E-1,-8.434241E0,4.962911E0,-1.6577581E-2,-8.697218E-3,-2.0059787E-1,-2.1743552E-1,-6.973122E-1,2.2439122E-1,1.0997674E0,4.4378903E-2,-6.7351335E-3],"categories":[],"categories_nodes":[],"categories_segments":[],"categories_sizes":[],"default_left":[0,0,0,0,0,0,0,0,0,0,0,0,0,0,0],"id":64,"left_children":[1,3,5,7,9,11,13,-1,-1,-1,-1,-1,-1,-1,-1],"loss_changes":[9.911459E2,2.1158809E3,2.9412744E3,5.727639E2,8.626494E2,8.7231445E2,1.1036129E3,0E0,0E0,0E0,0E0,0E0,0E0,0E0,0E0],"parents":[2147483647,0,0,1,1,2,2,3,3,4,4,5,5,6,6],"right_children":[2,4,6,8,10,12,14,-1,-1,-1,-1,-1,-1,-1,-1],"split_conditions":[2.7265057E1,3.0147654E1,2.8018147E1,2.6283E3,7.297918E0,4.096944E1,3.8220413E1,-8.697218E-3,-2.0059787E-1,-2.1743552E-1,-6.973122E-1,2.2439122E-1,1.0997674E0,4.4378903E-2,-6.7351335E-3],"split_indices":[38,28,28,12,39,7,28,0,0,0,0,0,0,0,0],"split_type":[0,0,0,0,0,0,0,0,0,0,0,0,0,0,0],"sum_hessian":[1.0787E4,3.37E2,1.045E4,2.97E2,4E1,1.19E2,1.0331E4,2.52E2,4.5E1,2.4E1,1.6E1,1.17E2,2E0,1.193E3,9.138E3],"tree_param":{"num_deleted":"0","num_feature":"44","num_nodes":"15","size_leaf_vector":"1"}},{"base_weights":[-1.31952E-2,-1.0359339E-1,9.959773E-1,1.30108055E-2,-2.775945E0,5.7160916E0,1.9970018E-1,-7.2801346E-3,4.053527E-2,-8.6340114E-2,-2.2153333E-1,8.859442E-2,3.712271E-1,1.8059412E-3,2.6073453E-1],"categories":[],"categories_nodes":[],"categories_segments":[],"categories_sizes":[],"default_left":[0,0,0,0,0,0,0,0,0,0,0,0,0,0,0],"id":65,"left_children":[1,3,5,7,9,11,13,-1,-1,-1,-1,-1,-1,-1,-1],"loss_changes":[9.84264E2,3.0855725E3,3.3326653E3,1.200715E3,7.1106934E2,8.4936914E2,6.232844E2,0E0,0E0,0E0,0E0,0E0,0E0,0E0,0E0],"parents":[2147483647,0,0,1,1,2,2,3,3,4,4,5,5,6,6],"right_children":[2,4,6,8,10,12,14,-1,-1,-1,-1,-1,-1,-1,-1],"split_conditions":[7.089079E1,6.885214E1,6.9098885E1,6.0731632E1,6.8130593E0,5.206181E0,4.0136E4,-7.2801346E-3,4.053527E-2,-8.6340114E-2,-2.2153333E-1,8.859442E-2,3.712271E-1,1.8059412E-3,2.6073453E-1],"split_indices":[38,28,28,38,39,39,36,0,0,0,0,0,0,0,0],"split_type":[0,0,0,0,0,0,0,0,0,0,0,0,0,0,0],"sum_hessian":[1.0787E4,9.901E3,8.86E2,9.488E3,4.13E2,1.27E2,7.59E2,7.915E3,1.573E3,2.54E2,1.59E2,3.9E1,8.8E1,7.36E2,2.3E1],"tree_param":{"num_deleted":"0","num_feature":"44","num_nodes":"15","size_leaf_vector":"1"}},{"base_weights":[-1.249394E-2,3.081282E-1,-2.9076028E-1,-2.8445811E-3,2.380809E0,-2.3509786E0,1.3847935E-2,1.9074861E-2,-3.202611E-2,5.1421184E-2,1.9120467E-1,-1.0428754E-1,-4.093558E-1,3.522987E-2,-1.6239144E-2],"categories":[],"categories_nodes":[],"categories_segments":[],"categories_sizes":[],"default_left":[0,0,0,0,0,0,0,0,0,0,0,0,0,0,0],"id":66,"left_children":[1,3,5,7,9,11,13,-1,-1,-1,-1,-1,-1,-1,-1],"loss_changes":[9.6257715E2,3.2311228E3,3.624816E3,1.0688198E3,1.2725947E3,1.134565E3,1.177493E3,0E0,0E0,0E0,0E0,0E0,0E0,0E0,0E0],"parents":[2147483647,0,0,1,1,2,2,3,3,4,4,5,5,6,6],"right_children":[2,4,6,8,10,12,14,-1,-1,-1,-1,-1,-1,-1,-1],"split_conditions":[5.0698765E1,5.0146667E1,5.1683292E1,4.3233627E1,5.8844714E0,3.1494E3,5.824282E1,1.9074861E-2,-3.202611E-2,5.1421184E-2,1.9120467E-1,-1.0428754E-1,-4.093558E-1,3.522987E-2,-1.6239144E-2],"split_indices":[28,38,38,28,39,23,28,0,0,0,0,0,0,0,0],"split_type":[0,0,0,0,0,0,0,0,0,0,0,0,0,0,0],"sum_hessian":[1.0787E4,5.012E3,5.775E3,4.359E3,6.53E2,7.43E2,5.032E3,2.72E3,1.639E3,3.38E2,3.15E2,7.12E2,3.1E1,1.655E3,3.377E3],"tree_param":{"num_deleted":"0","num_feature":"44","num_nodes":"15","size_leaf_vector":"1"}},{"base_weights":[-1.1893806E-2,-1.1722875E0,6.555108E-2,-2.737417E-1,-6.2173166E0,2.7869518E0,-4.0974423E-2,-6.8037882E-3,-3.6536816E-1,-1.2801443E-1,-5.221172E-1,1.1807956E-1,6.5041584E-1,-7.128872E-2,2.8156599E-3],"categories":[],"categories_nodes":[],"categories_segments":[],"categories_sizes":[],"default_left":[0,0,0,0,0,0,0,0,0,0,0,0,0,0,0],"id":67,"left_children":[1,3,5,7,9,11,13,-1,-1,-1,-1,-1,-1,-1,-1],"loss_changes":[9.6955725E2,3.0582012E3,2.9321487E3,5.548041E2,1.5492712E3,1.6257795E3,1.3114827E3,0E0,0E0,0E0,0E0,0E0,0E0,0E0,0E0],"parents":[2147483647,0,0,1,1,2,2,3,3,4,4,5,5,6,6],"right_children":[2,4,6,8,10,12,14,-1,-1,-1,-1,-1,-1,-1,-1],"split_conditions":[3.1464073E1,3.3353054E1,3.394342E1,4.0136E4,6.429197E0,2.9138E3,3.7997047E1,-6.8037882E-3,-3.6536816E-1,-1.2801443E-1,-5.221172E-1,1.1807956E-1,6.5041584E-1,-7.128872E-2,2.8156599E-3],"split_indices":[38,28,28,36,39,23,38,0,0,0,0,0,0,0,0],"split_type":[0,0,0,0,0,0,0,0,0,0,0,0,0,0,0],"sum_hessian":[1.0787E4,6.74E2,1.0113E4,5.73E2,1.01E2,3.8E2,9.733E3,5.63E2,1E1,5.5E1,4.6E1,3.66E2,1.4E1,6.38E2,9.095E3],"tree_param":{"num_deleted":"0","num_feature":"44","num_nodes":"15","size_leaf_vector":"1"}},{"base_weights":[-1.1328988E-2,-1.2101462E-1,7.830416E-1,2.496674E-2,-2.4244637E0,5.0288706E0,1.7898479E-1,-5.8200336E-3,4.9370345E-2,-1.0697266E-1,-4.1253337E-1,2.1787952E-1,8.015525E-1,3.3617567E-2,-5.6599595E-2],"categories":[],"categories_nodes":[],"categories_segments":[],"categories_sizes":[],"default_left":[0,0,0,0,0,0,0,0,0,0,0,0,0,0,0],"id":68,"left_children":[1,3,5,7,9,11,13,-1,-1,-1,-1,-1,-1,-1,-1],"loss_changes":[9.400644E2,3.187811E3,3.3563213E3,1.213205E3,9.205476E2,1.1339873E3,7.426315E2,0E0,0E0,0E0,0E0,0E0,0E0,0E0,0E0],"parents":[2147483647,0,0,1,1,2,2,3,3,4,4,5,5,6,6],"right_children":[2,4,6,8,10,12,14,-1,-1,-1,-1,-1,-1,-1,-1],"split_conditions":[6.795713E1,6.561662E1,6.607963E1,6.039468E1,1.2954701E1,3.3743896E0,7.621596E1,-5.8200336E-3,4.9370345E-2,-1.0697266E-1,-4.1253337E-1,2.1787952E-1,8.015525E-1,3.3617567E-2,-5.6599595E-2],"split_indices":[38,28,28,38,40,42,28,0,0,0,0,0,0,0,0],"split_type":[0,0,0,0,0,0,0,0,0,0,0,0,0,0,0],"sum_hessian":[1.0787E4,9.479E3,1.308E3,8.915E3,5.64E2,1.62E2,1.146E3,7.774E3,1.141E3,5.39E2,2.5E1,1.54E2,8E0,8.33E2,3.13E2],"tree_param":{"num_deleted":"0","num_feature":"44","num_nodes":"15","size_leaf_vector":"1"}},{"base_weights":[-1.0714289E-2,-4.8830356E-2,2.3421288E0,-3.3362692E-3,-4.2034006E0,1.166512E1,8.969892E-1,-5.145265E-3,4.7411337E-2,-1.7009573E-1,-4.036983E-1,9.3033E-1,4.3516156E-1,-1.1554255E-2,1.3707928E-1],"categories":[],"categories_nodes":[],"categories_segments":[],"categories_sizes":[],"default_left":[0,0,0,0,0,0,0,0,0,0,0,0,0,0,0],"id":69,"left_children":[1,3,5,7,9,11,13,-1,-1,-1,-1,-1,-1,-1,-1],"loss_changes":[9.675943E2,2.006688E3,2.3068965E3,9.95217E2,3.2928662E2,3.109402E2,3.1275983E2,0E0,0E0,0E0,0E0,0E0,0E0,0E0,0E0],"parents":[2147483647,0,0,1,1,2,2,3,3,4,4,5,5,6,6],"right_children":[2,4,6,8,10,12,14,-1,-1,-1,-1,-1,-1,-1,-1],"split_conditions":[7.944786E1,7.780097E1,7.621596E1,6.826004E1,8.2052574E1,3.057E3,1.1469E4,-5.145265E-3,4.7411337E-2,-1.7009573E-1,-4.036983E-1,9.3033E-1,4.3516156E-1,-1.1554255E-2,1.3707928E-1],"split_indices":[38,28,28,38,28,26,36,0,0,0,0,0,0,0,0],"split_type":[0,0,0,0,0,0,0,0,0,0,0,0,0,0,0],"sum_hessian":[1.0787E4,1.0616E4,1.71E2,1.0502E4,1.14E2,2.2E1,1.49E2,9.508E3,9.94E2,9.6E1,1.8E1,5E0,1.7E1,9.3E1,5.6E1],"tree_param":{"num_deleted":"0","num_feature":"44","num_nodes":"15","size_leaf_vector":"1"}},{"base_weights":[-1.0089631E-2,2.774204E-1,-3.1647885E-1,-1.3158089E-2,2.175439E0,-2.5035326E0,-2.8340783E-2,1.2944232E-2,-4.3875888E-2,3.9277467E-1,9.281634E-2,-8.188938E-2,-2.2525966E-1,3.23385E-2,-1.6980458E-2],"categories":[],"categories_nodes":[],"categories_segments":[],"categories_sizes":[],"default_left":[0,0,0,0,0,0,0,0,0,0,0,0,0,0,0],"id":70,"left_children":[1,3,5,7,9,11,13,-1,-1,-1,-1,-1,-1,-1,-1],"loss_changes":[9.504024E2,3.0698076E3,3.291325E3,1.1354963E3,1.3249097E3,1.0462417E3,9.702288E2,0E0,0E0,0E0,0E0,0E0,0E0,0E0,0E0],"parents":[2147483647,0,0,1,1,2,2,3,3,4,4,5,5,6,6],"right_children":[2,4,6,8,10,12,14,-1,-1,-1,-1,-1,-1,-1,-1],"split_conditions":[5.2385803E1,5.133831E1,5.276558E1,4.6798782E1,-4.2874446E0,7.569153E0,5.9114594E1,1.2944232E-2,-4.3875888E-2,3.9277467E-1,9.281634E-2,-8.188938E-2,-2.2525966E-1,3.23385E-2,-1.6980458E-2],"split_indices":[28,38,38,28,30,39,28,0,0,0,0,0,0,0,0],"split_type":[0,0,0,0,0,0,0,0,0,0,0,0,0,0,0],"sum_hessian":[1.0787E4,5.565E3,5.222E3,4.827E3,7.38E2,6.07E2,4.615E3,3.672E3,1.155E3,3.8E1,7E2,4.25E2,1.82E2,1.456E3,3.159E3],"tree_param":{"num_deleted":"0","num_feature":"44","num_nodes":"15","size_leaf_vector":"1"}},{"base_weights":[-9.570056E-3,-6.2458895E-2,1.6158565E0,1.6221905E-2,-3.1217625E0,4.842053E0,5.18406E-2,-4.294704E-3,5.719723E-2,-1.4216402E-1,-5.804078E-1,1.579297E-1,5.572892E-1,-4.899865E-2,9.809833E-2],"categories":[],"categories_nodes":[],"categories_segments":[],"categories_sizes":[],"default_left":[0,0,0,0,0,0,0,0,0,0,0,0,0,0,0],"id":71,"left_children":[1,3,5,7,9,11,13,-1,-1,-1,-1,-1,-1,-1,-1],"loss_changes":[9.2751215E2,2.5152134E3,1.7153287E3,1.1733331E3,5.861814E2,1.1427351E3,4.552283E2,0E0,0E0,0E0,0E0,0E0,0E0,0E0,0E0],"parents":[2147483647,0,0,1,1,2,2,3,3,4,4,5,5,6,6],"right_children":[2,4,6,8,10,12,14,-1,-1,-1,-1,-1,-1,-1,-1],"split_conditions":[7.621596E1,7.382595E1,7.621596E1,6.757323E1,2.05E1,7.944786E1,8.2052574E1,-4.294704E-3,5.719723E-2,-1.4216402E-1,-5.804078E-1,1.579297E-1,5.572892E-1,-4.899865E-2,9.809833E-2],"split_indices":[38,28,28,38,22,38,38,0,0,0,0,0,0,0,0],"split_type":[0,0,0,0,0,0,0,0,0,0,0,0,0,0,0],"sum_hessian":[1.0787E4,1.0448E4,3.39E2,1.0187E4,2.61E2,1.1E2,2.29E2,9.342E3,8.45E2,2.54E2,7E0,8.8E1,2.2E1,1.49E2,8E1],"tree_param":{"num_deleted":"0","num_feature":"44","num_nodes":"15","size_leaf_vector":"1"}},{"base_weights":[-9.082774E-3,-1.3063418E0,5.488527E-2,-5.7843333E-1,-8.098252E0,3.4954097E0,-1.6847583E-2,-5.7103965E-3,-1.8318145E-1,-1.0405108E0,-3.2529256E-1,1.6130696E-1,1.0499843E0,-5.578798E-2,3.6283818E-3],"categories":[],"categories_nodes":[],"categories_segments":[],"categories_sizes":[],"default_left":[0,0,0,0,0,0,0,0,0,0,0,0,0,0,0],"id":72,"left_children":[1,3,5,7,9,11,13,-1,-1,-1,-1,-1,-1,-1,-1],"loss_changes":[8.9529364E2,2.5018674E3,2.5376423E3,6.569733E2,8.564968E2,9.2206274E2,9.898485E2,0E0,0E0,0E0,0E0,0E0,0E0,0E0,0E0],"parents":[2147483647,0,0,1,1,2,2,3,3,4,4,5,5,6,6],"right_children":[2,4,6,8,10,12,14,-1,-1,-1,-1,-1,-1,-1,-1],"split_conditions":[2.9635422E1,3.3353054E1,3.1139233E1,2.6506E3,-1.3646637E1,4.4194874E1,3.696339E1,-5.7103965E-3,-1.8318145E-1,-1.0405108E0,-3.2529256E-1,1.6130696E-1,1.0499843E0,-5.578798E-2,3.6283818E-3],"split_indices":[38,28,28,13,40,39,38,0,0,0,0,0,0,0,0],"split_type":[0,0,0,0,0,0,0,0,0,0,0,0,0,0,0],"sum_hessian":[1.0787E4,5.06E2,1.0281E4,4.58E2,4.8E1,2.09E2,1.0072E4,3.99E2,5.9E1,4E0,4.4E1,2.07E2,2E0,7.57E2,9.315E3],"tree_param":{"num_deleted":"0","num_feature":"44","num_nodes":"15","size_leaf_vector":"1"}},{"base_weights":[-8.66531E-3,3.0930007E-1,-2.7611288E-1,-8.5698776E-2,1.7305653E0,-2.9345453E0,-7.400766E-2,-2.280552E-3,-4.5702434E-1,4.9716476E-2,1.5950064E-1,-1.275669E-1,-5.17808E-1,-2.749754E-2,1.5661784E-2],"categories":[],"categories_nodes":[],"categories_segments":[],"categories_sizes":[],"default_left":[0,0,0,0,0,0,0,0,0,0,0,0,0,0,0],"id":73,"left_children":[1,3,5,7,9,11,13,-1,-1,-1,-1,-1,-1,-1,-1],"loss_changes":[9.174869E2,2.7672798E3,3.1482612E3,1.399983E3,1.1486895E3,1.1510007E3,1.0040859E3,0E0,0E0,0E0,0E0,0E0,0E0,0E0,0E0],"parents":[2147483647,0,0,1,1,2,2,3,3,4,4,5,5,6,6],"right_children":[2,4,6,8,10,12,14,-1,-1,-1,-1,-1,-1,-1,-1],"split_conditions":[5.0429646E1,4.7898964E1,4.936036E1,3.3372E3,7.0288305E0,3.0713E3,5.9913204E1,-2.280552E-3,-4.5702434E-1,4.9716476E-2,1.5950064E-1,-1.275669E-1,-5.17808E-1,-2.749754E-2,1.5661784E-2],"split_indices":[28,38,38,13,39,1,38,0,0,0,0,0,0,0,0],"split_type":[0,0,0,0,0,0,0,0,0,0,0,0,0,0,0],"sum_hessian":[1.0787E4,4.928E3,5.859E3,3.857E3,1.071E3,4.13E2,5.446E3,3.841E3,1.6E1,7.13E2,3.58E2,3.94E2,1.9E1,2.443E3,3.003E3],"tree_param":{"num_deleted":"0","num_feature":"44","num_nodes":"15","size_leaf_vector":"1"}},{"base_weights":[-8.316148E-3,2.122825E-1,-3.9471328E-1,4.007759E-2,2.7157862E0,-2.127299E0,6.2003825E-2,3.3779738E-3,-2.9111147E-1,8.1375025E-2,2.6159865E-1,-1.0030178E-1,-5.862396E-1,-1.5758827E-2,4.9373712E-2],"categories":[],"categories_nodes":[],"categories_segments":[],"categories_sizes":[],"default_left":[0,0,0,0,0,0,0,0,0,0,0,0,0,0,0],"id":74,"left_children":[1,3,5,7,9,11,13,-1,-1,-1,-1,-1,-1,-1,-1],"loss_changes":[9.196387E2,2.9607932E3,3.1028254E3,1.0358297E3,1.2018269E3,9.2848926E2,1.0838224E3,0E0,0E0,0E0,0E0,0E0,0E0,0E0,0E0],"parents":[2147483647,0,0,1,1,2,2,3,3,4,4,5,5,6,6],"right_children":[2,4,6,8,10,12,14,-1,-1,-1,-1,-1,-1,-1,-1],"split_conditions":[5.655469E1,5.701267E1,5.8596416E1,3.3372E3,7.1364365E0,1.5399902E1,9.568E3,3.3779738E-3,-2.9111147E-1,8.1375025E-2,2.6159865E-1,-1.0030178E-1,-5.862396E-1,-1.5758827E-2,4.9373712E-2],"split_indices":[28,38,38,13,39,22,36,0,0,0,0,0,0,0,0],"split_type":[0,0,0,0,0,0,0,0,0,0,0,0,0,0,0],"sum_hessian":[1.0787E4,6.867E3,3.92E3,6.426E3,4.41E2,8.17E2,3.103E3,6.397E3,2.9E1,3.09E2,1.32E2,8.08E2,9E0,2.205E3,8.98E2],"tree_param":{"num_deleted":"0","num_feature":"44","num_nodes":"15","size_leaf_vector":"1"}},{"base_weights":[-7.955723E-3,5.6374556E-1,-1.5388995E-1,-2.8987254E-3,2.7536876E0,-3.0788848E0,-1.2241345E-2,2.8881298E-3,-4.7825328E-1,7.968221E-1,1.2549792E-1,-1.3108991E-1,-5.781941E-1,4.1047633E-2,-7.781545E-3],"categories":[],"categories_nodes":[],"categories_segments":[],"categories_sizes":[],"default_left":[0,0,0,0,0,0,0,0,0,0,0,0,0,0,0],"id":75,"left_children":[1,3,5,7,9,11,13,-1,-1,-1,-1,-1,-1,-1,-1],"loss_changes":[9.0013806E2,2.7225825E3,3.561055E3,1.01216614E3,1.4090723E3,1.5093982E3,9.796731E2,0E0,0E0,0E0,0E0,0E0,0E0,0E0,0E0],"parents":[2147483647,0,0,1,1,2,2,3,3,4,4,5,5,6,6],"right_children":[2,4,6,8,10,12,14,-1,-1,-1,-1,-1,-1,-1,-1],"split_conditions":[4.0764523E1,4.022143E1,4.0760742E1,3.3218E3,-5.565093E0,3.045E3,4.649372E1,2.8881298E-3,-4.7825328E-1,7.968221E-1,1.2549792E-1,-1.3108991E-1,-5.781941E-1,4.1047633E-2,-7.781545E-3],"split_indices":[28,38,38,24,32,12,28,0,0,0,0,0,0,0,0],"split_type":[0,0,0,0,0,0,0,0,0,0,0,0,0,0,0],"sum_hessian":[1.0787E4,2.193E3,8.594E3,1.743E3,4.5E2,3.96E2,8.198E3,1.733E3,1E1,7E0,4.43E2,3.77E2,1.9E1,1.203E3,6.995E3],"tree_param":{"num_deleted":"0","num_feature":"44","num_nodes":"15","size_leaf_vector":"1"}},{"base_weights":[-7.5791758E-3,1.5998067E-1,-4.8040035E-1,1.2211125E-2,2.9331045E0,-2.2765872E0,7.634053E-2,9.71163E-3,-3.1540755E-2,1.246115E-1,5.62562E-1,-1.01704635E-1,-3.873338E-1,-5.6757173E-3,1.2147975E-1],"categories":[],"categories_nodes":[],"categories_segments":[],"categories_sizes":[],"default_left":[0,0,0,0,0,0,0,0,0,0,0,0,0,0,0],"id":76,"left_children":[1,3,5,7,9,11,13,-1,-1,-1,-1,-1,-1,-1,-1],"loss_changes":[8.547653E2,3.2642976E3,2.823204E3,8.854476E2,1.4498625E3,8.703225E2,9.635267E2,0E0,0E0,0E0,0E0,0E0,0E0,0E0,0E0],"parents":[2147483647,0,0,1,1,2,2,3,3,4,4,5,5,6,6],"right_children":[2,4,6,8,10,12,14,-1,-1,-1,-1,-1,-1,-1,-1],"split_conditions":[6.0747116E1,6.1076572E1,6.248036E1,5.3592228E1,3.0349858E0,3.0713E3,2.3483E4,9.71163E-3,-3.1540755E-2,1.246115E-1,5.62562E-1,-1.01704635E-1,-3.873338E-1,-5.6757173E-3,1.2147975E-1],"split_indices":[28,38,38,28,42,1,36,0,0,0,0,0,0,0,0],"split_type":[0,0,0,0,0,0,0,0,0,0,0,0,0,0,0],"sum_hessian":[1.0787E4,7.965E3,2.822E3,7.563E3,4.02E2,6.67E2,2.155E3,5.895E3,1.668E3,3.83E2,1.9E1,6.4E2,2.7E1,1.995E3,1.6E2],"tree_param":{"num_deleted":"0","num_feature":"44","num_nodes":"15","size_leaf_vector":"1"}},{"base_weights":[-7.173144E-3,-8.9013416E-1,8.0152415E-2,-1.1284322E-1,-4.376327E0,2.2012415E0,-5.2037083E-2,-6.747144E-2,2.9231403E-2,-5.4718727E-1,-1.4807953E-1,6.918849E-2,2.2996931E-1,-5.506816E-2,4.5949146E-3],"categories":[],"categories_nodes":[],"categories_segments":[],"categories_sizes":[],"default_left":[0,0,0,0,0,0,0,0,0,0,0,0,0,0,0],"id":77,"left_children":[1,3,5,7,9,11,13,-1,-1,-1,-1,-1,-1,-1,-1],"loss_changes":[8.318807E2,2.6307085E3,2.7529412E3,6.864627E2,1.6121255E3,1.122835E3,1.3961191E3,0E0,0E0,0E0,0E0,0E0,0E0,0E0,0E0],"parents":[2147483647,0,0,1,1,2,2,3,3,4,4,5,5,6,6],"right_children":[2,4,6,8,10,12,14,-1,-1,-1,-1,-1,-1,-1,-1],"split_conditions":[3.394342E1,3.499599E1,3.696513E1,2.666339E1,-2.6219032E0,8.73232E0,4.236779E1,-6.747144E-2,2.9231403E-2,-5.4718727E-1,-1.4807953E-1,6.918849E-2,2.2996931E-1,-5.506816E-2,4.5949146E-3],"split_indices":[38,28,28,38,42,39,38,0,0,0,0,0,0,0,0],"split_type":[0,0,0,0,0,0,0,0,0,0,0,0,0,0,0],"sum_hessian":[1.0787E4,9.7E2,9.817E3,7.94E2,1.76E2,5.75E2,9.242E3,2.86E2,5.08E2,3E1,1.46E2,4.3E2,1.45E2,1.114E3,8.128E3],"tree_param":{"num_deleted":"0","num_feature":"44","num_nodes":"15","size_leaf_vector":"1"}},{"base_weights":[-6.8594115E-3,1.2492091E-1,-5.7718825E-1,3.319321E-2,4.1983147E0,-2.245845E0,1.0552897E-1,-3.578358E-3,4.9688395E-2,1.7591454E-1,7.081075E-1,-9.85111E-2,-3.7453887E-1,5.3068776E-2,-1.8724997E-2],"categories":[],"categories_nodes":[],"categories_segments":[],"categories_sizes":[],"default_left":[0,0,0,0,0,0,0,0,0,0,0,0,0,0,0],"id":78,"left_children":[1,3,5,7,9,11,13,-1,-1,-1,-1,-1,-1,-1,-1],"loss_changes":[8.108779E2,3.2744683E3,2.3071592E3,8.62673E2,1.2578733E3,8.3526855E2,6.602007E2,0E0,0E0,0E0,0E0,0E0,0E0,0E0,0E0],"parents":[2147483647,0,0,1,1,2,2,3,3,4,4,5,5,6,6],"right_children":[2,4,6,8,10,12,14,-1,-1,-1,-1,-1,-1,-1,-1],"split_conditions":[6.41074E1,6.586025E1,6.6275696E1,6.039468E1,3.0545E3,3.0754E3,6.9368515E1,-3.578358E-3,4.9688395E-2,1.7591454E-1,7.081075E-1,-9.85111E-2,-3.7453887E-1,5.3068776E-2,-1.8724997E-2],"split_indices":[28,38,38,38,33,23,28,0,0,0,0,0,0,0,0],"split_type":[0,0,0,0,0,0,0,0,0,0,0,0,0,0,0],"sum_hessian":[1.0787E4,8.763E3,2.024E3,8.571E3,1.92E2,5.87E2,1.437E3,7.729E3,8.42E2,1.81E2,1.1E1,5.59E2,2.8E1,4.8E2,9.57E2],"tree_param":{"num_deleted":"0","num_feature":"44","num_nodes":"15","size_leaf_vector":"1"}},{"base_weights":[-6.4708977E-3,4.8204204E-1,-1.5945743E-1,-5.0361946E-2,2.2559104E0,-2.7387981E0,-9.996521E-3,1.5234183E-2,-6.1881494E-2,6.2292524E-2,2.2238071E-1,-7.449931E-2,-2.790524E-1,1.7348327E-2,-1.6624708E-2],"categories":[],"categories_nodes":[],"categories_segments":[],"categories_sizes":[],"default_left":[0,0,0,0,0,0,0,0,0,0,0,0,0,0,0],"id":79,"left_children":[1,3,5,7,9,11,13,-1,-1,-1,-1,-1,-1,-1,-1],"loss_changes":[8.063277E2,2.4300923E3,3.167328E3,8.3501495E2,1.3094277E3,1.5889304E3,8.942503E2,0E0,0E0,0E0,0E0,0E0,0E0,0E0,0E0],"parents":[2147483647,0,0,1,1,2,2,3,3,4,4,5,5,6,6],"right_children":[2,4,6,8,10,12,14,-1,-1,-1,-1,-1,-1,-1,-1],"split_conditions":[4.236779E1,4.1109245E1,4.236779E1,1.2109E4,7.0618997E0,7.2612767E0,5.6021706E1,1.5234183E-2,-6.1881494E-2,6.2292524E-2,2.2238071E-1,-7.449931E-2,-2.790524E-1,1.7348327E-2,-1.6624708E-2],"split_indices":[28,38,38,36,39,39,28,0,0,0,0,0,0,0,0],"split_type":[0,0,0,0,0,0,0,0,0,0,0,0,0,0,0],"sum_hessian":[1.0787E4,2.572E3,8.215E3,1.979E3,5.93E2,4.49E2,7.766E3,1.524E3,4.55E2,4.07E2,1.86E2,3.13E2,1.36E2,3.686E3,4.08E3],"tree_param":{"num_deleted":"0","num_feature":"44","num_nodes":"15","size_leaf_vector":"1"}},{"base_weights":[-6.1579933E-3,-5.862611E-2,1.4271605E0,3.17045E-2,-2.4231067E0,5.19301E0,3.608568E-1,-1.3420803E-3,1.0423527E-1,-1.0422478E-1,-3.3208844E-1,2.0977943E-1,8.7301105E-1,-1.8192967E-2,1.1057446E-1],"categories":[],"categories_nodes":[],"categories_segments":[],"categories_sizes":[],"default_left":[0,0,0,0,0,0,0,0,0,0,0,0,0,0,0],"id":80,"left_children":[1,3,5,7,9,11,13,-1,-1,-1,-1,-1,-1,-1,-1],"loss_changes":[8.1137933E2,2.2230693E3,1.5280464E3,1.205133E3,5.3326587E2,9.545327E2,4.0047723E2,0E0,0E0,0E0,0E0,0E0,0E0,0E0,0E0],"parents":[2147483647,0,0,1,1,2,2,3,3,4,4,5,5,6,6],"right_children":[2,4,6,8,10,12,14,-1,-1,-1,-1,-1,-1,-1,-1],"split_conditions":[7.565349E1,7.233888E1,7.422906E1,7.089079E1,7.944786E1,3.1872334E0,8.2052574E1,-1.3420803E-3,1.0423527E-1,-1.0422478E-1,-3.3208844E-1,2.0977943E-1,8.7301105E-1,-1.8192967E-2,1.1057446E-1],"split_indices":[38,28,28,38,28,42,38,0,0,0,0,0,0,0,0],"split_type":[0,0,0,0,0,0,0,0,0,0,0,0,0,0,0],"sum_hessian":[1.0787E4,1.0407E4,3.8E2,1.0025E4,3.82E2,8.3E1,2.97E2,9.748E3,2.77E2,3.55E2,2.7E1,7.8E1,5E0,2.14E2,8.3E1],"tree_param":{"num_deleted":"0","num_feature":"44","num_nodes":"15","size_leaf_vector":"1"}},{"base_weights":[-5.7720677E-3,1.7021027E0,-4.7114603E-2,-1.7097342E-1,5.022563E0,-8.070754E0,-2.1897769E-2,-5.2552976E-2,7.961536E-2,1.7605722E-1,5.125807E-1,-2.0098773E-1,-6.061853E-1,-6.579972E-2,2.6596272E-3],"categories":[],"categories_nodes":[],"categories_segments":[],"categories_sizes":[],"default_left":[0,0,0,0,0,0,0,0,0,0,0,0,0,0,0],"id":81,"left_children":[1,3,5,7,9,11,13,-1,-1,-1,-1,-1,-1,-1,-1],"loss_changes":[7.617979E2,1.5868247E3,2.1311758E3,2.5617514E2,6.861941E2,4.9307642E2,1.0205926E3,0E0,0E0,0E0,0E0,0E0,0E0,0E0,0E0],"parents":[2147483647,0,0,1,1,2,2,3,3,4,4,5,5,6,6],"right_children":[2,4,6,8,10,12,14,-1,-1,-1,-1,-1,-1,-1,-1],"split_conditions":[2.5830654E1,2.4990387E1,2.412884E1,2.3006783E1,1.0071978E1,7.912475E0,3.293661E1,-5.2552976E-2,7.961536E-2,1.7605722E-1,5.125807E-1,-2.0098773E-1,-6.061853E-1,-6.579972E-2,2.6596272E-3],"split_indices":[28,38,38,38,39,39,38,0,0,0,0,0,0,0,0],"split_type":[0,0,0,0,0,0,0,0,0,0,0,0,0,0,0],"sum_hessian":[1.0787E4,2.54E2,1.0533E4,1.63E2,9.1E1,3.2E1,1.0501E4,1.09E2,5.4E1,7.2E1,1.9E1,1.7E1,1.5E1,5.75E2,9.926E3],"tree_param":{"num_deleted":"0","num_feature":"44","num_nodes":"15","size_leaf_vector":"1"}},{"base_weights":[-5.4978076E-3,3.883169E-1,-1.8795618E-1,-9.773368E-2,1.8196411E0,-2.7744443E0,-3.8009387E-2,1.3541508E-3,-1.8165417E-1,5.162344E-2,1.856114E-1,-4.4377614E-2,-2.2395706E-1,-4.9946025E-2,4.0919664E-3],"categories":[],"categories_nodes":[],"categories_segments":[],"categories_sizes":[],"default_left":[0,0,0,0,0,0,0,0,0,0,0,0,0,0,0],"id":82,"left_children":[1,3,5,7,9,11,13,-1,-1,-1,-1,-1,-1,-1,-1],"loss_changes":[7.7524255E2,2.3766753E3,2.8594062E3,1.1257798E3,1.2863274E3,1.2955225E3,8.0277454E2,0E0,0E0,0E0,0E0,0E0,0E0,0E0,0E0],"parents":[2147483647,0,0,1,1,2,2,3,3,4,4,5,5,6,6],"right_children":[2,4,6,8,10,12,14,-1,-1,-1,-1,-1,-1,-1,-1],"split_conditions":[4.551166E1,4.3409943E1,4.4635696E1,3.048636E3,7.4293237E0,5.6230817E0,4.8693375E1,1.3541508E-3,-1.8165417E-1,5.162344E-2,1.856114E-1,-4.4377614E-2,-2.2395706E-1,-4.9946025E-2,4.0919664E-3],"split_indices":[28,38,38,5,39,39,38,0,0,0,0,0,0,0,0],"split_type":[0,0,0,0,0,0,0,0,0,0,0,0,0,0,0],"sum_hessian":[1.0787E4,3.415E3,7.372E3,2.55E3,8.65E2,4.03E2,6.969E3,2.464E3,8.6E1,6.12E2,2.53E2,1.92E2,2.11E2,7.72E2,6.197E3],"tree_param":{"num_deleted":"0","num_feature":"44","num_nodes":"15","size_leaf_vector":"1"}},{"base_weights":[-5.2467617E-3,6.014827E-1,-1.21113494E-1,-2.7116862E-1,1.8797686E0,-3.478867E0,-3.0905096E-2,-3.7577213E-3,-3.5138437E-1,4.6069488E-1,8.200381E-2,-8.229924E-2,-3.5618982E-1,-3.9148454E-2,4.8176483E-3],"categories":[],"categories_nodes":[],"categories_segments":[],"categories_sizes":[],"default_left":[0,0,0,0,0,0,0,0,0,0,0,0,0,0,0],"id":83,"left_children":[1,3,5,7,9,11,13,-1,-1,-1,-1,-1,-1,-1,-1],"loss_changes":[7.5846655E2,1.930321E3,2.7438413E3,1.3622522E3,1.2189595E3,1.5716067E3,8.444912E2,0E0,0E0,0E0,0E0,0E0,0E0,0E0,0E0],"parents":[2147483647,0,0,1,1,2,2,3,3,4,4,5,5,6,6],"right_children":[2,4,6,8,10,12,14,-1,-1,-1,-1,-1,-1,-1,-1],"split_conditions":[3.862356E1,3.522965E1,3.748725E1,2.4215996E1,-5.565093E0,7.2612767E0,4.4635696E1,-3.7577213E-3,-3.5138437E-1,4.6069488E-1,8.200381E-2,-8.229924E-2,-3.5618982E-1,-3.9148454E-2,4.8176483E-3],"split_indices":[28,38,38,7,32,39,38,0,0,0,0,0,0,0,0],"split_type":[0,0,0,0,0,0,0,0,0,0,0,0,0,0,0],"sum_hessian":[1.0787E4,1.729E3,9.058E3,1.028E3,7.01E2,2.36E2,8.822E3,1E3,2.8E1,2.1E1,6.8E2,1.58E2,7.8E1,1.276E3,7.546E3],"tree_param":{"num_deleted":"0","num_feature":"44","num_nodes":"15","size_leaf_vector":"1"}},{"base_weights":[-5.010866E-3,1.7734309E-1,-3.9910337E-1,3.7578914E-2,2.808716E0,-2.0763645E0,5.3263057E-2,-1.2345319E-2,2.1017024E-2,6.081718E-2,2.2875646E-1,-9.686397E-2,-5.0894487E-1,3.4211703E-2,-2.1476133E-2],"categories":[],"categories_nodes":[],"categories_segments":[],"categories_sizes":[],"default_left":[0,0,0,0,0,0,0,0,0,0,0,0,0,0,0],"id":84,"left_children":[1,3,5,7,9,11,13,-1,-1,-1,-1,-1,-1,-1,-1],"loss_changes":[7.753432E2,2.7125781E3,2.5896787E3,7.628785E2,1.0407922E3,7.9731274E2,8.1942725E2,0E0,0E0,0E0,0E0,0E0,0E0,0E0,0E0],"parents":[2147483647,0,0,1,1,2,2,